-0.018426932394504547
0.006087876856327057
-0.041388075798749924
-0.0453823022544384
-0.006123505532741547
0.05982466787099838
0.011951766908168793
-0.08188037574291229
0.07874644547700882
0.018032707273960114
0.016304194927215576
0.06875301152467728
-0.05220703408122063
-0.08178161084651947
-0.06517776101827621
-0.02283458039164543
-0.023630142211914062
-0.04337324947118759
0.04808533936738968
0.011017464101314545
0.07441938668489456
0.04151824861764908
-0.026820242404937744
-0.03914733976125717
-0.07414688915014267
0.050795264542102814
0.016476891934871674
-0.04711536690592766
-0.05716737359762192
0.06524992734193802
-0.07907303422689438
-0.05056965351104736
-0.01735633611679077
0.06766010075807571
0.06943491846323013
0.04784616082906723
-0.03557952493429184
0.009601257741451263
0.04081185907125473
0.06194577366113663
0.018963195383548737
-0.052560292184352875
0.02597898244857788
0.0377371683716774
-0.06458073854446411
-0.03485071659088135
-0.005835331976413727
-0.009997129440307617
0.014406047761440277
0.02109595388174057
0.05342865735292435
0.012381993234157562
-0.029659748077392578
-0.016012273728847504
-0.011895716190338135
-0.0720212459564209
-0.03907299041748047
0.012195490300655365
-0.042707763612270355
-0.06315986812114716
0.04648622125387192
0.0034311413764953613
0.03447500616312027
0.0335160493850708
-0.08230173587799072
0.013052664697170258
-0.0420716218650341
-0.07474015653133392
0.0756177082657814
0.057372115552425385
0.07500750571489334
-0.01004502922296524
-0.00877467542886734
-0.021691422909498215
-0.06003284454345703
-0.07481580972671509
-0.027408622205257416
-0.0377633199095726
-0.04457658529281616
0.033909477293491364
0.04188957065343857
0.06662151962518692
-0.06636130809783936
-0.03160703182220459
0.004504203796386719
-0.04554647207260132
-0.03774380683898926
-0.05844104290008545
-0.0007534846663475037
0.010089553892612457
-0.06631787866353989
-0.008453726768493652
-0.022864781320095062
-0.01258549839258194
0.01795262098312378
0.05206265300512314
0.02634420245885849
-0.0422198586165905
0.009825527667999268
-0.08256553113460541
0.049023278057575226
0.03261768817901611
0.041080377995967865
0.017830155789852142
-0.01597217470407486
-0.057108622044324875
-0.006108678877353668
0.010645650327205658
-0.014047324657440186
0.06486072391271591
0.06989821046590805
0.07378629595041275
0.0658421590924263
0.03377314656972885
-0.02250131219625473
-0.015797875821590424
0.05399370938539505
-0.04820408672094345
0.021092094480991364
0.08200011402368546
-0.02340676635503769
-0.0725637674331665
0.0476011261343956
0.06716189533472061
0.0004513859748840332
-0.05874381586909294
0.04208502918481827
-0.01230853796005249
-0.06925845146179199
0.05905745178461075
-0.03731713816523552
0.028872691094875336
0.02235511690378189
0.07323307543992996
-0.01122990995645523
0.05436358600854874
0.06911230832338333
-0.05701081082224846
0.03166065365076065
-0.05207782983779907
0.005152583122253418
-0.05448486655950546
-0.05484328791499138
0.06611249595880508
-0.014569222927093506
0.05534911900758743
-0.059185564517974854
-0.0009008422493934631
-0.08233605325222015
0.020185887813568115
-0.05981316417455673
-0.029493331909179688
-0.05989867448806763
-0.034167271107435226
-0.02297334000468254
0.0806058868765831
-0.08096881955862045
-0.0606829933822155
-0.04187983274459839
0.07615814357995987
0.051242537796497345
0.06857538968324661
0.03524448722600937
-0.003843449056148529
0.029227949678897858
-0.02252785488963127
0.019595466554164886
0.02212236076593399
-0.06842099130153656
0.009027838706970215
0.026920221745967865
0.00549691915512085
-0.029726188629865646
-0.08326391875743866
-0.05070958659052849
-0.07289930433034897
-0.05740531533956528
-0.032162927091121674
-2.3543834686279297e-05
0.020173929631710052
-0.005682550370693207
-0.03554415702819824
-0.05008147284388542
0.01695021241903305
0.022685490548610687
0.05239374190568924
-0.0521601065993309
0.014270104467868805
-0.07483222335577011
0.00021018832921981812
0.059118397533893585
0.07319546490907669
0.05763324350118637
-0.008746981620788574
-0.03349264711141586
-0.06515656411647797
-0.0547395758330822
0.07315696030855179
0.03418529033660889
-0.021203577518463135
0.06918706744909286
-0.011397801339626312
-0.021278362721204758
-0.04951034113764763
0.002628229558467865
0.08060676604509354
0.005286596715450287
-0.022204600274562836
-0.05399380251765251
-0.006600558757781982
-0.05814449116587639
-0.041763149201869965
0.03927280753850937
-0.07153350114822388
0.06858239322900772
-0.04154878854751587
-0.03726228326559067
0.00981595367193222
0.05644562095403671
-0.0014990568161010742
0.06029132753610611
0.033306755125522614
0.07946338504552841
-0.07447177171707153
-0.02243087813258171
-0.0695217102766037
-0.004186011850833893
-0.06237546727061272
-0.07962578535079956
-0.0716535896062851
0.004562638700008392
0.038223959505558014
0.05062910169363022
-0.025933347642421722
0.04519221931695938
-0.06184399127960205
0.06328507512807846
-0.03974350541830063
0.06499924510717392
-0.06430083513259888
0.01225360482931137
-0.053747594356536865
0.0789664015173912
0.024851299822330475
0.03630562871694565
0.039396680891513824
-0.04049484059214592
-0.023067515343427658
0.005126498639583588
0.02633289247751236
-0.06700371205806732
-0.04541776701807976
-0.07484380900859833
0.036760903894901276
-0.0739373192191124
0.0326714888215065
0.01974576711654663
-0.03973057121038437
0.0031487345695495605
0.004744015634059906
0.07851459830999374
0.08329937607049942
0.04760148376226425
-0.030046701431274414
0.0028986334800720215
-0.0685214027762413
-0.0048146843910217285
0.031676746904850006
0.028821133077144623
-0.058617495000362396
0.024247266352176666
0.013734199106693268
0.02123870700597763
0.03914322704076767
-0.058267753571271896
-0.017584897577762604
-0.060682278126478195
-0.03991430997848511
0.05872122198343277
-0.02578604221343994
-0.041112326085567474
0.030116118490695953
-0.01193392276763916
0.08117739111185074
0.003165304660797119
0.03145156055688858
-0.0163445845246315
-0.0688314288854599
-0.044405024498701096
-0.02315996214747429
0.059912629425525665
0.04960820823907852
0.05664757639169693
0.009908914566040039
-0.027633529156446457
0.008094727993011475
-0.0763905867934227
0.02814382314682007
-0.03447234630584717
-0.014545358717441559
-0.07682701200246811
0.07590266317129135
0.002703726291656494
-0.022005438804626465
0.07788319140672684
0.013525404036045074
-0.07061867415904999
0.07642699033021927
0.07236029952764511
-0.047102492302656174
-0.0738573893904686
0.011445008218288422
-0.00770491361618042
-0.06503669917583466
0.035638511180877686
0.0699753388762474
-0.053512632846832275
0.015229225158691406
-0.07022041082382202
-0.08100821822881699
-0.07080437988042831
-0.05180814117193222
0.06259936839342117
-0.03569310903549194
0.07699746638536453
0.04063627868890762
-0.05688959360122681
0.026403866708278656
0.042666204273700714
-0.08168443292379379
-0.08077450841665268
-0.02300993725657463
-0.02807994931936264
-0.08258092403411865
-0.017142295837402344
-0.06948542594909668
-0.07167895883321762
0.01977749913930893
-0.003222726285457611
0.02950730174779892
0.053057096898555756
0.05379603058099747
-0.04951431602239609
0.020281873643398285
-0.06531183421611786
0.07116950303316116
-0.04204557463526726
-0.04696371406316757
0.046425960958004
0.0522063747048378
-0.040169358253479004
-0.08253954350948334
0.00696873664855957
0.009099401533603668
-0.06758658587932587
-0.014976084232330322
-0.03526701778173447
0.03252609819173813
0.06840922683477402
0.011787176132202148
-0.0004900917410850525
0.04606189578771591
-0.015081264078617096
0.07573825865983963
0.022272489964962006
-0.046890776604413986
-0.07404031604528427
-0.006478607654571533
0.07841873914003372
0.0635090097784996
-0.017863035202026367
0.05009052902460098
-0.047177910804748535
-0.02278238534927368
0.006012678146362305
0.027013979852199554
-0.040403347462415695
0.07636293023824692
-0.005464695394039154
0.04057357460260391
0.05438718944787979
-0.07762100547552109
0.005470238626003265
-0.029750745743513107
-0.08175470679998398
-0.038353025913238525
0.05939269810914993
0.06250584870576859
-0.004528343677520752
-0.04135163873434067
-0.010467492043972015
-0.055540941655635834
0.04535158723592758
0.051560498774051666
0.04357502609491348
0.05274906009435654
-0.004699505865573883
0.028620362281799316
0.0459064319729805
-0.07083096355199814
0.05950959771871567
-0.011829257011413574
0.03558164834976196
0.0614958181977272
-0.0497344546020031
-0.01123962551355362
0.07095331698656082
0.012852072715759277
-0.011569976806640625
0.07351651042699814
-0.006940163671970367
-0.03074115514755249
-0.009629152715206146
-0.004090748727321625
0.03129049390554428
-0.01888396590948105
-0.0641186460852623
-0.010818444192409515
-0.03821521997451782
-0.06655353307723999
0.02898494154214859
-0.049740176647901535
-0.05504308268427849
-0.07180975377559662
-0.025196492671966553
0.02995910495519638
-0.081301748752594
-0.047313690185546875
-0.08130699396133423
-0.05086781829595566
0.021588169038295746
-0.002400539815425873
-0.01760091632604599
0.07415593415498734
-0.05464969202876091
0.004332028329372406
0.06357429176568985
-0.06926262378692627
0.021062351763248444
0.011378824710845947
0.03809633105993271
0.018157683312892914
0.08140677958726883
0.008044160902500153
0.0688667967915535
-0.08106615394353867
0.05314149707555771
-0.04542561620473862
-0.03410516306757927
0.013312757015228271
0.07541313022375107
-0.019627034664154053
-0.06397654861211777
0.059050507843494415
-0.05349568650126457
0.06351806968450546
-0.02261286973953247
0.006996653974056244
0.07588372379541397
0.08125118166208267
-0.03627530857920647
0.0455283597111702
0.06884042173624039
0.03706546872854233
-0.036588650196790695
-0.06175466626882553
0.010311402380466461
-0.038242023438215256
-0.00863870233297348
0.03979337215423584
0.03927123546600342
-0.02711157128214836
0.07427027076482773
-0.03186754509806633
0.0005611404776573181
-0.01332467794418335
-0.008400000631809235
0.058934129774570465
-0.0270841121673584
-0.018582545220851898
0.03660837560892105
0.03599069267511368
0.06941238790750504
0.06401070207357407
0.03799865394830704
-0.02638479322195053
0.0424579456448555
0.07232441753149033
0.005168937146663666
-0.02644902467727661
-0.020719967782497406
0.0810081735253334
0.04831225425004959
0.04420586675405502
0.01959085464477539
0.06662329286336899
-0.02690035104751587
0.06714119762182236
0.0022681131958961487
0.07678791135549545
-0.03048306703567505
-0.04804450273513794
0.07723601907491684
0.012801982462406158
0.07767511159181595
-0.008337855339050293
0.054053641855716705
-0.014789462089538574
0.005689896643161774
-0.03892586752772331
0.06225600093603134
-0.005791090428829193
0.038165271282196045
-0.056590598076581955
-0.003265462815761566
-0.0302543044090271
0.041224561631679535
-0.06871785968542099
-0.024097125977277756
0.07278642803430557
0.05691540986299515
-0.07277774810791016
-0.015635669231414795
-0.016114749014377594
-0.07068511098623276
-0.01840069144964218
-0.03424759954214096
0.01946413516998291
0.006523109972476959
0.06123218685388565
-0.02442348003387451
0.0402965322136879
-0.020523667335510254
-0.03342413902282715
0.027342520654201508
0.033782802522182465
-0.023867249488830566
0.04964349418878555
-0.03804503008723259
-0.04703754186630249
0.006640255451202393
0.01722661405801773
-0.06851967424154282
0.08032787591218948
0.029619179666042328
0.02192157506942749
-0.013800479471683502
0.03647514432668686
0.07972296327352524
0.05873323231935501
-0.03392680734395981
-0.005503259599208832
0.002034030854701996
0.026644252240657806
-0.00287029892206192
0.0180075541138649
0.06154432147741318
0.0646139606833458
-0.060994528234004974
0.0391908660531044
0.037828229367733
-0.04650916904211044
0.02064136415719986
-0.030690830200910568
0.007881879806518555
0.043265290558338165
-0.016367554664611816
0.013701081275939941
-0.06600668281316757
-0.002136610448360443
-0.004490017890930176
-0.01888803392648697
-0.03482916206121445
-0.010277867317199707
0.07812488824129105
0.06812695413827896
-0.05724602937698364
0.045898400247097015
0.024293579161167145
0.049693383276462555
-0.03493579477071762
-0.04969348758459091
0.01720384508371353
-0.07513254880905151
0.007490992546081543
0.02327638864517212
-0.016579829156398773
-0.041037023067474365
-0.08034692704677582
-0.05288153886795044
-0.042659007012844086
-0.051956258714199066
0.015719078481197357
0.06440899521112442
-0.0050524696707725525
-0.01949864625930786
-0.02669239044189453
0.03687713295221329
-0.0265137180685997
0.01134268194437027
0.08082463592290878
0.013233162462711334
0.015116296708583832
0.08208712190389633
0.06231353431940079
-0.06924563646316528
-0.07492189109325409
0.08152300864458084
0.05552389472723007
0.0409565195441246
-0.03954237699508667
0.07314202934503555
-0.05633544921875
-0.05867757648229599
-0.06493037939071655
-0.05738763138651848
0.04242321103811264
0.04162013530731201
0.07850772887468338
-0.005013607442378998
0.028607048094272614
0.04269055277109146
-0.057593703269958496
0.05167413502931595
-0.014552772045135498
0.04588434845209122
0.0829763188958168
-0.00602259486913681
0.0014112964272499084
-0.05916021391749382
-0.07462094724178314
-0.07600313425064087
0.030635476112365723
-0.013354144990444183
-0.02949347347021103
-0.04960070177912712
-0.016491509974002838
0.03653627634048462
-0.05700783059000969
0.06389585882425308
0.05864337831735611
0.04749879986047745
0.06992711871862411
-0.018171966075897217
0.06906590610742569
-0.07105110585689545
0.02600773423910141
0.01809748262166977
0.08226890116930008
0.05179782956838608
0.0804387554526329
-0.0393090657889843
-0.06300237029790878
0.00881105661392212
0.015249334275722504
-0.028709392994642258
0.00033745914697647095
0.022881947457790375
0.0457591786980629
-0.009837903082370758
0.007309257984161377
-0.07059496641159058
-0.08165516704320908
0.0783720389008522
0.05991598218679428
-0.05704544112086296
0.05749944597482681
-0.02209991216659546
-0.06110439822077751
0.01321554183959961
0.009668529033660889
0.02494218200445175
0.03399749845266342
-0.07935778796672821
-0.05093421787023544
0.03882315009832382
0.08194375783205032
0.009809114038944244
0.021660588681697845
0.07820805162191391
0.05182936042547226
0.01970341056585312
-0.004162095487117767
0.041954122483730316
-0.05636920779943466
0.021443307399749756
0.0010097995400428772
-0.03873775526881218
-0.06796996295452118
-0.03371473401784897
0.026937104761600494
-0.07288354635238647
0.056902624666690826
0.030133746564388275
0.07150004059076309
0.024889647960662842
0.01187155395746231
-0.06094535440206528
-0.02561774104833603
0.04787955433130264
-0.05522765964269638
-0.06728081405162811
0.0027896761894226074
0.07292064279317856
-0.01884017139673233
-0.05359802767634392
-0.02777509018778801
0.04319705814123154
0.05695626884698868
-0.025768142193555832
0.034143030643463135
0.011584877967834473
0.06032378226518631
0.08105001598596573
-0.0028920993208885193
0.06878922134637833
-0.04688763618469238
-0.012161515653133392
0.016990400850772858
-0.021481376141309738
0.05560561269521713
0.034727632999420166
0.02157193422317505
0.057797156274318695
0.04493538290262222
0.06720194965600967
0.0789811834692955
-0.01630403846502304
-0.0012366175651550293
-0.06986179202795029
-0.02101576328277588
0.021305561065673828
0.019809305667877197
-0.0688236802816391
-0.005192220211029053
-0.006082989275455475
-0.038055043667554855
0.04269228130578995
0.02309183031320572
-0.07068526744842529
0.07239211350679398
0.02439568191766739
-0.012646377086639404
0.06299600750207901
0.04115321487188339
-0.04297983646392822
0.023019470274448395
0.06752527505159378
-0.05002518743276596
-0.00920470803976059
-0.08290104568004608
-0.06166907399892807
0.0066759586334228516
-0.07696946710348129
-0.041036467999219894
0.06957674771547318
-0.01700115203857422
0.0749526396393776
0.04486265033483505
-0.026042424142360687
0.003345765173435211
0.01895306259393692
-0.03292793035507202
-0.08009760081768036
0.0037664398550987244
-0.07375681400299072
-0.04004858061671257
-0.05464804172515869
-0.007851339876651764
0.06373318284749985
-0.08258157968521118
0.03098660707473755
-0.03701617568731308
0.04218525439500809
-0.019472278654575348
-0.05801846832036972
-0.01913437992334366
-0.05013096332550049
0.029440440237522125
-0.061458270996809006
-0.037913065403699875
-0.04153428599238396
0.0380651131272316
0.044491253793239594
0.07788249105215073
-0.023936651647090912
0.05149529129266739
0.018510662019252777
-0.08238457143306732
0.0664006844162941
0.018338583409786224
0.03723808377981186
0.03633493185043335
-0.05040745064616203
0.03596681356430054
0.006017923355102539
0.06200099736452103
-0.06499042361974716
-0.0766376480460167
0.026191987097263336
-0.00018459558486938477
0.07839592546224594
-0.024331729859113693
-0.028566181659698486
-0.04409587383270264
-0.08134641498327255
0.07479352504014969
0.04274418205022812
-0.03211045265197754
0.06813480705022812
-0.008451543748378754
-0.0682181715965271
-0.08281560987234116
0.0650009736418724
-0.030982576310634613
-0.07261066138744354
-0.06853978335857391
-0.0819815844297409
-0.002886474132537842
0.0018160119652748108
0.014248333871364594
-0.08245422691106796
-0.016617633402347565
-0.03599172830581665
-0.03427525609731674
0.06623538583517075
-0.01342848688364029
-0.05813753604888916
0.06485158950090408
-0.07354655116796494
-0.07255824655294418
0.015497662127017975
-0.01917862892150879
0.05650562793016434
0.03579080104827881
0.08112099021673203
0.012435317039489746
-0.07279416173696518
-0.0442078523337841
0.05950655788183212
-0.055675845593214035
0.03175199031829834
0.012511588633060455
0.049801357090473175
0.011371217668056488
0.08042330294847488
0.06819526106119156
0.0354650616645813
-0.0013327226042747498
-0.005756400525569916
0.043937765061855316
0.009229041635990143
0.026947341859340668
-0.055573344230651855
0.08290795236825943
-0.035490017384290695
0.055089689791202545
0.07845339924097061
-0.053533874452114105
-0.07484748214483261
-0.04262181371450424
0.05123991519212723
0.0661974623799324
0.024913646280765533
0.07741648703813553
0.008762776851654053
-0.0309603214263916
-0.00644461065530777
-0.0738431066274643
-0.03341522067785263
-0.01048281043767929
0.053952671587467194
0.06726690381765366
-0.050397854298353195
-0.04932622238993645
0.0060080066323280334
0.01658632606267929
0.021220482885837555
0.057047389447689056
0.04857967048883438
-0.057674407958984375
-0.023004591464996338
0.020278848707675934
0.009505651891231537
0.08048833161592484
0.07161042839288712
-0.015380464494228363
-0.04370292276144028
0.053978823125362396
0.006660878658294678
-0.038929861038923264
-0.05921254679560661
-0.023984551429748535
0.02783411741256714
-0.005298100411891937
0.005143485963344574
-0.08204196393489838
-0.0797770619392395
-0.004623211920261383
-0.03551570698618889
-0.06933169066905975
-0.07180440425872803
-0.008528269827365875
-0.06253688037395477
-0.012850739061832428
0.02572011947631836
0.054582320153713226
0.0012760385870933533
0.04258690029382706
0.003574550151824951
0.061702288687229156
-0.0456058606505394
-0.0553717240691185
0.044818975031375885
0.002513311803340912
-0.04441090673208237
-0.05324208736419678
-0.06532613933086395
0.009067155420780182
0.010078787803649902
-0.008083045482635498
0.07964441925287247
0.02478436380624771
-0.023752670735120773
0.07791740447282791
0.07908269017934799
0.03029944747686386
0.06664677709341049
0.055784501135349274
-0.03418012708425522
0.0027973875403404236
-0.028359930962324142
-0.009739793837070465
0.06637213379144669
-0.07031536102294922
-0.05307271331548691
-0.05056258291006088
-0.08291137218475342
0.07439567893743515
0.04473549872636795
0.007719315588474274
-0.06201372668147087
0.08030303567647934
-0.023966412991285324
-0.07958728075027466
0.06125951558351517
-0.05728050321340561
0.05028834193944931
0.0813559964299202
0.03241708129644394
0.08276309818029404
-0.06519824266433716
-0.025089304894208908
-0.06883758306503296
-0.07112139463424683
0.03781038522720337
0.07185419648885727
0.05346909910440445
-0.05017409846186638
-0.02157660573720932
-0.007889889180660248
0.06900427490472794
-0.04326586052775383
-0.08325241506099701
0.017882205545902252
-0.04633959382772446
0.00449071079492569
0.0007851347327232361
-0.05582469701766968
-0.05959951877593994
-0.06449209153652191
-0.06506314128637314
-0.07126709073781967
0.007687173783779144
-0.01586536318063736
0.012914858758449554
-0.015450753271579742
0.019258975982666016
0.015400908887386322
-0.013644300401210785
-0.026871364563703537
0.023346997797489166
0.0030287131667137146
-0.04674597829580307
0.019308805465698242
-0.07853221893310547
0.03539707511663437
0.0492982491850853
0.018172860145568848
0.07681336253881454
-0.059932809323072433
-0.0614914707839489
0.015551067888736725
-0.03808176517486572
0.04569254070520401
-0.046426158398389816
-0.006281554698944092
0.002566814422607422
-0.0698821172118187
-0.06259159743785858
0.08062907308340073
-0.040752213448286057
0.05855747312307358
-0.05630870908498764
-0.06379835307598114
-0.024443745613098145
0.059604860842227936
0.019511401653289795
0.05051783472299576
-0.07164476811885834
0.031729042530059814
-0.023440461605787277
-0.05336199328303337
-0.04798877239227295
-0.05729260295629501
0.025839805603027344
0.017608143389225006
-0.015960276126861572
-0.04327970743179321
0.008233964443206787
-0.030913732945919037
-0.03773137181997299
-0.04764517396688461
-0.057707130908966064
-0.0567835196852684
-0.015417873859405518
-0.07499384880065918
0.038659609854221344
-0.05328045412898064
0.049661196768283844
-0.062345944344997406
0.056468330323696136
-0.01892169564962387
0.008026957511901855
-0.07046502828598022
0.05106785148382187
-0.010232292115688324
0.06900740414857864
-0.04758608341217041
0.025334417819976807
-0.02933478355407715
0.0279771089553833
-0.05851646512746811
-0.00530552864074707
-0.013358235359191895
-0.07641150802373886
-0.07039225101470947
0.083099864423275
0.04314462095499039
0.06123701483011246
-0.06263518333435059
-0.03207765147089958
-0.0743991956114769
0.0022177323698997498
-5.960464477539063e-08
0.016404829919338226
-0.03086445853114128
-0.06998294591903687
-0.08274976909160614
-0.027349811047315598
-0.06431691348552704
-0.02419295161962509
-0.043021559715270996
-0.0639510378241539
0.06296368688344955
-0.012852035462856293
-0.05939314886927605
0.014053739607334137
0.029735960066318512
0.02862360328435898
-0.045607708394527435
-0.07705559581518173
-0.000531412661075592
-0.023378949612379074
-0.015546798706054688
0.0629548653960228
0.04527146369218826
-0.02248603105545044
0.02641505002975464
-0.029709022492170334
-0.014974094927310944
-0.048536717891693115
-0.08027895539999008
0.04382074624300003
-0.038129907101392746
-0.05124843120574951
-0.02971029281616211
0.08238334208726883
0.061037980020046234
0.052665241062641144
-0.08332526683807373
-0.06024005264043808
-0.06362228095531464
0.0681593045592308
0.038114629685878754
-0.07412165403366089
-0.01597902923822403
-0.0010119453072547913
-0.05050679296255112
0.05727187544107437
0.0766814723610878
0.0804026797413826
0.0494096502661705
0.038884855806827545
-0.012645341455936432
0.01917930692434311
-0.061501406133174896
0.07347080856561661
0.07013902813196182
-0.019054055213928223
0.0651632621884346
-0.03133799880743027
0.07584550231695175
0.07860740274190903
-0.06229567527770996
0.01841811090707779
0.04486574977636337
-0.029963653534650803
-0.06819377839565277
0.07182332128286362
0.0801563635468483
-0.006853781640529633
0.07735665887594223
0.04713309556245804
0.056233860552310944
0.0005485638976097107
0.03189438581466675
0.03665163367986679
0.06410474330186844
-0.04046052694320679
0.06936586648225784
0.039612770080566406
-0.07131141424179077
0.044596828520298004
-0.019295871257781982
0.007431067526340485
0.007129848003387451
0.07436617463827133
0.0649615004658699
-0.062439899891614914
-0.013548888266086578
0.07266471534967422
0.07889243215322495
0.06410671025514603
0.06925126165151596
0.05072256177663803
-0.06006493419408798
-0.012357451021671295
0.08242911845445633
0.08161600679159164
0.0015008226037025452
-0.03408082574605942
-0.018422521650791168
-0.04891391843557358
0.0321391224861145
0.0673525407910347
0.07449748367071152
0.0240262970328331
-0.014864109456539154
-0.010048426687717438
-0.08002402633428574
-0.05979921668767929
-0.009161412715911865
-0.02653181552886963
-0.06684648990631104
0.004309557378292084
-0.005223214626312256
0.02595728635787964
-0.029439151287078857
-0.04110487550497055
0.028247691690921783
-0.03431091830134392
-0.05503471940755844
0.07318945974111557
0.025073014199733734
-0.002864040434360504
0.052003033459186554
-0.008092083036899567
0.04636486619710922
-0.028128884732723236
-0.008268892765045166
0.05590737611055374
-0.07123645395040512
0.02889031171798706
-0.05858556553721428
0.009019635617733002
-0.0015005692839622498
0.01623304933309555
0.08275196701288223
-0.0059233903884887695
0.00013333559036254883
-0.075864277780056
0.07724574953317642
0.0342944860458374
-0.07828440517187119
0.04063385725021362
0.032192669808864594
-0.040652334690093994
-0.025457702577114105
-0.037625472992658615
-0.03825291246175766
-0.057096004486083984
0.011942900717258453
0.05312059074640274
0.016434527933597565
0.013725459575653076
-0.05427899211645126
0.051595695316791534
0.03761404752731323
-0.051273249089717865
0.0045437440276145935
-0.038974106311798096
-0.05662959814071655
0.07520205527544022
-0.015790678560733795
0.03445688635110855
-0.05418819189071655
0.02169414609670639
0.020907200872898102
-0.06986244767904282
-0.011723898351192474
0.026331305503845215
0.010260559618473053
0.021736346185207367
-0.028733473271131516
-0.01069951057434082
-0.0492706298828125
-0.025229256600141525
0.017248034477233887
-0.05909230560064316
0.041717179119586945
0.0704726055264473
-0.07014434039592743
-0.0625171884894371
-0.07020644843578339
0.04718995839357376
-0.08280523866415024
-0.019647203385829926
0.04998106509447098
0.06419763714075089
0.00871429592370987
-0.04011422395706177
0.01624506711959839
-0.05253853648900986
-0.030146442353725433
0.049119241535663605
-0.05496404692530632
-0.019031107425689697
-0.010323785245418549
0.08249356597661972
-0.016296565532684326
-0.0007548928260803223
0.0015034675598144531
-0.06509386003017426
0.020808637142181396
0.056191302835941315
-0.033664606511592865
0.004992283880710602
-0.03530997037887573
-0.04585862159729004
0.05622253566980362
-0.008745633065700531
0.05619438737630844
-0.007861830294132233
-0.06016496941447258
0.012753665447235107
0.016449451446533203
-0.0326896533370018
-0.009521879255771637
0.047667719423770905
0.020255625247955322
0.07387169450521469
-0.05217977613210678
-0.011597871780395508
0.006841301918029785
-0.07041299343109131
0.0710131898522377
0.08279193192720413
-0.007220722734928131
0.05478281527757645
0.004317425191402435
0.07895108312368393
0.023281097412109375
-0.007585607469081879
0.03830766677856445
-0.03373861312866211
-0.011702358722686768
0.04989800602197647
0.06043217331171036
0.01713486760854721
-0.04408608004450798
0.013438545167446136
0.008746407926082611
-0.06210106611251831
0.0511690154671669
-0.06886404752731323
0.05135538429021835
-0.031156104058027267
0.06447841972112656
-0.04056153818964958
-0.06135992333292961
0.07383628934621811
0.04536650329828262
-0.08190695941448212
-0.026869159191846848
-0.057356856763362885
0.06552238017320633
-0.02688600867986679
-0.01219242811203003
0.04149029403924942
0.024639509618282318
0.031059660017490387
-0.0024900436401367188
-0.024314742535352707
0.048764146864414215
0.012554585933685303
-0.0016733631491661072
0.02918034791946411
-0.07976418733596802
-0.0795729011297226
-0.0320158414542675
0.07793078571557999
-0.014379598200321198
-0.029790304601192474
-0.02193760871887207
-0.025895535945892334
0.06824246793985367
0.08120729774236679
0.040474534034729004
-0.07912632077932358
0.0015284046530723572
0.0447675958275795
-0.0572330579161644
0.04048331826925278
-0.0010487064719200134
-0.06844781339168549
0.06835772842168808
-0.052583497017621994
0.0009163618087768555
-0.03148627281188965
-0.04779760167002678
-0.010284245014190674
-0.018757306039333344
0.00701681524515152
-0.0018759965896606445
-0.05527331680059433
0.011954940855503082
0.007114388048648834
-0.013388514518737793
0.016337871551513672
-0.020706139504909515
0.00688769668340683
0.06761052459478378
-0.00939331203699112
0.06864414364099503
-0.018843330442905426
-0.06454811990261078
0.0816856250166893
-0.07716773450374603
0.03666738420724869
0.05558422952890396
-0.022654257714748383
0.0625438317656517
0.05804572254419327
0.019619666039943695
-0.06730157136917114
-0.01638183742761612
-0.03267053887248039
0.012583136558532715
-0.020285487174987793
0.02411782741546631
-0.07712473720312119
-0.05655662342905998
0.007529295980930328
0.04874672740697861
0.07757113128900528
-0.06231335923075676
0.019964158535003662
-0.06551848351955414
0.06001170724630356
0.03155209869146347
0.04837767034769058
-0.06205145642161369
0.06805387884378433
0.002222619950771332
-0.03583236783742905
-0.029613733291625977
0.0003613606095314026
-0.05074344202876091
-0.028612177819013596
0.0490555539727211
-0.04077724739909172
0.062205858528614044
-0.03592580556869507
0.07342017441987991
0.06360498815774918
-0.0136808380484581
-0.04590195417404175
-0.02387239784002304
-0.015750549733638763
-0.004255793988704681
0.008670270442962646
0.0013373270630836487
-0.02536706253886223
0.02103489637374878
0.07964644581079483
-0.001965366303920746
0.012829087674617767
-0.02071491628885269
0.0032761096954345703
-0.023301761597394943
-0.047332763671875
-0.062113307416439056
-0.018026508390903473
0.029093384742736816
0.04502958804368973
-0.005333222448825836
0.0616096630692482
-0.07322633266448975
-0.06899827718734741
0.07906804233789444
-0.06193723529577255
-0.04821908473968506
-8.603185415267944e-05
-0.011418722569942474
0.03849860280752182
0.0008270144462585449
-0.04319477081298828
-0.05260626599192619
-0.07701359689235687
0.07069028168916702
0.059350766241550446
-0.021630845963954926
0.05730227380990982
0.023790620267391205
-0.062141239643096924
-0.05264550447463989
0.0407261848449707
-0.048469267785549164
0.049999676644802094
0.027092494070529938
-0.05682870000600815
-0.025557100772857666
-0.02999206632375717
-0.0452059730887413
-0.07934793084859848
0.0729614719748497
-0.04483461380004883
0.03670310974121094
-0.03186138719320297
-0.05316680669784546
-0.05049214884638786
0.07454469054937363
-0.036851029843091965
-0.04775860160589218
0.0648922547698021
-0.011309944093227386
0.04551825672388077
-0.07625441253185272
0.06260140985250473
0.0018968209624290466
-0.02749636024236679
-0.06402288377285004
-0.04649796336889267
0.05780603736639023
0.07052912563085556
0.030422843992710114
0.05965898185968399
-0.05278380960226059
-0.06485025584697723
-0.02166728302836418
-0.037619512528181076
-0.0738532766699791
-0.055323243141174316
-0.06983371824026108
-0.01004781574010849
-0.07870551198720932
0.05637773126363754
-0.020988665521144867
-0.04521584510803223
0.05350438505411148
0.04823479801416397
-0.009237527847290039
-0.03026847168803215
0.08185634762048721
0.07235116511583328
-0.08243018388748169
-0.030909262597560883
-0.05466818809509277
-0.013698957860469818
-0.03518559783697128
-0.030607860535383224
0.03750147670507431
-0.030980348587036133
-0.07586626708507538
0.057026468217372894
0.07992426306009293
-0.01592705398797989
0.009485721588134766
-0.024950921535491943
0.07829757779836655
-0.016639135777950287
0.052190087735652924
0.04545245319604874
-0.0006635561585426331
-0.021672111004590988
0.050511397421360016
-0.055549465119838715
-0.021966975182294846
-0.06669402122497559
-0.04681798070669174
0.006527327001094818
-0.06013449281454086
0.0017483606934547424
0.021851755678653717
-0.054644566029310226
0.027978144586086273
-0.01382986456155777
-0.03339346498250961
0.024556852877140045
0.07841942459344864
0.05066893249750137
-0.03200046345591545
-0.05073180049657822
0.056213535368442535
-0.07327141612768173
0.055399246513843536
0.054037220776081085
0.07933744043111801
-0.01274782419204712
-0.07223916053771973
-0.027576010674238205
-0.05143547058105469
0.022856391966342926
0.05533304065465927
0.06475324183702469
0.03156689554452896
0.03817647695541382
-0.05981409549713135
0.05269721895456314
0.03161630779504776
0.07728602737188339
-0.01786007732152939
0.04564768821001053
-0.07737462222576141
-0.0683828592300415
0.05105731636285782
-0.08284994214773178
-0.06390124559402466
0.03312971442937851
0.03317389637231827
0.016791939735412598
-0.06723940372467041
0.05258055776357651
0.004260458052158356
0.03057972341775894
-0.048899512737989426
0.05910304933786392
0.06072825938463211
-0.01963242143392563
-0.05379486083984375
0.02395927906036377
0.07655789703130722
0.02854355424642563
0.002943374216556549
0.027345024049282074
-0.07805516570806503
0.08276756852865219
-0.009753644466400146
-0.03626292943954468
0.04257919639348984
0.031209014356136322
0.08027873188257217
0.028812982141971588
-0.0827862024307251
-0.011142827570438385
-0.07965251058340073
0.041156113147735596
0.00011286884546279907
0.018397867679595947
-0.007817983627319336
-0.047973573207855225
-0.07694137096405029
0.02045442909002304
0.030125461518764496
0.05091205984354019
0.0490589365363121
0.023883961141109467
0.060791678726673126
-0.07424192130565643
0.025528468191623688
0.018739759922027588
-0.06283128261566162
0.06788001209497452
0.035291850566864014
0.04939565807580948
0.06539333611726761
0.01536395400762558
-0.07283163070678711
-0.019994638860225677
-0.03962884470820427
0.0671296939253807
-0.01961042732000351
0.05560535937547684
-0.013910114765167236
-0.06557103246450424
0.008021317422389984
-0.047079168260097504
0.04114937782287598
0.007332503795623779
-0.038187943398952484
-0.0783504843711853
0.043032772839069366
0.001271761953830719
0.06382954865694046
0.061654649674892426
-0.01648698002099991
-0.019006110727787018
-0.011278368532657623
0.0063291192054748535
-0.013161182403564453
0.04341147094964981
-0.04426521062850952
0.08122015744447708
-0.014429330825805664
0.07405652850866318
0.012021005153656006
-0.04651818796992302
-0.00907965749502182
-0.0255587100982666
0.026609279215335846
-0.02878892421722412
-0.07195119559764862
-0.07877455651760101
-0.009997688233852386
0.014211274683475494
-0.04789525270462036
-0.05482840538024902
-0.02813069149851799
0.0685160830616951
-0.051153361797332764
0.017213784158229828
-0.06100881099700928
0.030923806130886078
0.0136818066239357
-0.06555577367544174
0.07234541326761246
0.015901125967502594
0.039168260991573334
0.07087387889623642
0.02967820316553116
-0.059638939797878265
0.01300104707479477
-0.008159160614013672
0.03152402490377426
-0.032642465084791183
-0.023754995316267014
-0.07120174169540405
-0.07695597410202026
0.08043881505727768
-0.02695189043879509
-0.019405841827392578
-0.06102464720606804
0.05627990514039993
-0.05489003658294678
0.020349442958831787
-0.03092217445373535
-0.024635296314954758
-0.004624523222446442
-0.02855750173330307
0.009797930717468262
-0.016799867153167725
0.053848110139369965
0.033153511583805084
-0.010585643351078033
-0.05089759826660156
0.07702741771936417
-0.07917209714651108
-0.08249521255493164
-0.042942386120557785
0.07895378023386002
-0.04584445804357529
-0.05900140851736069
0.022616825997829437
0.07068798691034317
0.019552074372768402
0.032176338136196136
0.0053693875670433044
0.001026354730129242
0.07481011003255844
-0.08316318690776825
-0.008110880851745605
0.04398437589406967
0.07012297958135605
-0.04811009019613266
0.046123094856739044
0.005703054368495941
-0.054005444049835205
-0.0014339908957481384
0.0068518295884132385
0.04518190771341324
0.0319841131567955
-0.05893977731466293
0.0008364543318748474
0.020831167697906494
0.07327207177877426
0.08243272453546524
0.018269240856170654
-0.043591659516096115
-0.05828186124563217
0.009587287902832031
-0.01262887567281723
-0.050961934030056
0.07746557146310806
0.07270880788564682
-0.060083746910095215
-0.06182996556162834
-0.07253295183181763
0.02712128311395645
-0.0241268090903759
-0.007504068315029144
0.07269730418920517
0.07830987125635147
-0.045496344566345215
-0.029234807938337326
0.03496277332305908
0.03267446905374527
-0.0022292956709861755
0.07388170808553696
0.0279134139418602
-0.009732402861118317
-0.051395200192928314
-0.06231371685862541
-0.03345372527837753
0.001673959195613861
-0.04310808703303337
0.013478420674800873
-0.07775330543518066
-0.06497468799352646
0.018879137933254242
-0.0024690404534339905
0.07205191999673843
-0.016396760940551758
-0.020476840436458588
-0.05746501684188843
-0.006749488413333893
0.07657686620950699
0.02425161749124527
0.025123991072177887
-0.06078972667455673
0.032419346272945404
-0.020881175994873047
0.019252263009548187
-5.6646764278411865e-05
0.03351179510354996
0.02285025268793106
-0.07226735353469849
-0.08078895509243011
-0.018660761415958405
0.00775466114282608
0.007020376622676849
0.02178213745355606
-0.038528524339199066
-0.0571117028594017
0.03893021494150162
0.03428236395120621
0.06690124422311783
-0.009940780699253082
-0.03970545530319214
0.057765208184719086
0.06508899480104446
-0.0005319118499755859
0.029877223074436188
0.04057592153549194
-0.0006470680236816406
-0.05590377375483513
0.0016875267028808594
-0.059522390365600586
-0.07786902040243149
-0.03732987493276596
-0.03672713041305542
-0.07367118448019028
0.06702674180269241
0.07432857900857925
-0.0776522159576416
0.021847404539585114
0.01570948213338852
0.028210163116455078
0.019708216190338135
0.0403614416718483
-0.026295863091945648
0.03830751031637192
0.03469458967447281
-0.015867114067077637
0.06744887679815292
-0.006950020790100098
0.07489488273859024
0.022987209260463715
0.00717230886220932
0.05863881856203079
-0.05241835117340088
0.0002010241150856018
0.060948170721530914
0.07934550195932388
0.02717956155538559
-0.015270493924617767
-0.02501489967107773
0.04959798604249954
-0.04959060996770859
-0.013727091252803802
0.03901263326406479
-0.041223011910915375
0.0003969445824623108
0.0623224601149559
-0.022331755608320236
0.07162133604288101
-0.0797991007566452
-0.07369033992290497
-0.07319450378417969
0.0627681091427803
0.005896806716918945
0.01713661104440689
0.07425490766763687
0.07371390610933304
-0.011150039732456207
-0.0574101023375988
0.06927046924829483
-0.07890047878026962
0.010924302041530609
-0.0418267659842968
-0.04842732474207878
-0.023789942264556885
-0.011608384549617767
0.07048527151346207
0.03291710466146469
-0.06883114576339722
0.050842128694057465
0.03778751939535141
-0.02666817232966423
0.01798182725906372
0.018938638269901276
-0.04916447401046753
0.06634495407342911
-0.0318269357085228
0.06302454322576523
-0.025726519525051117
-0.06731854379177094
-0.07261832803487778
0.011430047452449799
-0.08094799518585205
-0.06452175229787827
-0.08217543363571167
-0.05506197735667229
-0.02515014261007309
-0.051243603229522705
0.04461456090211868
0.05511001497507095
-0.029404323548078537
0.057865582406520844
0.03555101156234741
0.0567731037735939
-0.05992823839187622
0.029028795659542084
0.0389285683631897
-0.06533122062683105
-0.07189822196960449
0.029487766325473785
-0.08008398860692978
-0.04099768400192261
-0.06927299499511719
0.07963439077138901
-0.031436365097761154
-0.0340186171233654
0.00905529409646988
-0.020169459283351898
0.07564427703619003
-0.022186599671840668
-0.013480961322784424
-0.034306466579437256
-0.018488742411136627
0.013454437255859375
0.0042398348450660706
-0.07144087553024292
-0.07187291234731674
-0.04394727945327759
-0.003329038619995117
0.04708186537027359
0.06618625670671463
0.011829853057861328
-0.017062567174434662
0.013169266283512115
0.004228733479976654
-0.0557955726981163
0.06784150749444962
-0.07970144599676132
-0.016898848116397858
0.07015521079301834
-0.019415535032749176
-0.05286916345357895
0.06715980917215347
-0.038720112293958664
-0.05980217456817627
0.08102119714021683
0.0071556344628334045
-0.07395593822002411
0.06731957942247391
-0.04352893680334091
0.011513791978359222
-0.04498962685465813
-0.04242076724767685
-0.029618047177791595
0.04623652249574661
-0.0011405125260353088
0.008751213550567627
-0.021787606179714203
-0.029948871582746506
-0.021199345588684082
-0.007424116134643555
0.011622168123722076
-0.030742745846509933
0.05438292771577835
-0.006148278713226318
0.037143804132938385
-0.04902946949005127
-0.035627566277980804
-0.0350041389465332
0.0198516845703125
0.07161895185709
-0.03004469722509384
0.0356106162071228
0.005496859550476074
-0.03144216537475586
-0.04383435100317001
0.04804215580224991
0.06883897632360458
-0.045908909291028976
0.019284404814243317
0.04050471633672714
0.023106753826141357
0.01609192043542862
0.040267787873744965
-0.0629931092262268
-0.04618581384420395
0.01616537570953369
-0.019345559179782867
0.0692959651350975
-0.0007267221808433533
0.0631229355931282
-0.07945190370082855
-0.0020354166626930237
0.0640295222401619
0.06993403285741806
-0.031608760356903076
0.020691312849521637
-0.08080171048641205
0.03706947714090347
0.05410637706518173
-0.028546731919050217
0.0697571411728859
0.020687557756900787
-0.0307503342628479
-0.0371968150138855
-0.02012455463409424
-0.008142329752445221
0.07979299873113632
-0.04907294362783432
0.01961340755224228
0.0038695931434631348
0.07216758280992508
0.08269820362329483
0.05729321390390396
0.06262398511171341
-0.08182334899902344
-0.004746772348880768
-0.08273343741893768
0.057459451258182526
-0.01991027593612671
0.04756138473749161
-0.07709213346242905
0.031647004187107086
0.01671823114156723
0.07461876422166824
-0.06337213516235352
-0.061687927693128586
0.028662480413913727
0.025812387466430664
0.030788183212280273
0.04144851118326187
-0.07460390031337738
-0.0426093153655529
-0.0805801972746849
-0.020330287516117096
-0.07680344581604004
0.07147880643606186
-0.06414904445409775
0.03602316230535507
-0.07529052346944809
0.032930195331573486
-0.08152278512716293
-0.008995532989501953
-0.007088400423526764
0.062422581017017365
-0.01639632135629654
0.03828465938568115
-0.03936535120010376
0.07687798887491226
0.03493368625640869
-0.05739849805831909
-0.06966106593608856
0.023548878729343414
0.01972232013940811
0.03615220636129379
0.06500283628702164
-0.02669016644358635
-0.038411639630794525
0.007796764373779297
0.029820062220096588
0.07610044628381729
-0.025659464299678802
0.013773240149021149
-0.012082196772098541
0.04076828807592392
0.05032230168581009
0.038600802421569824
-0.0190717950463295
-0.020108602941036224
0.025832176208496094
0.0032384395599365234
0.011049628257751465
-0.022689860314130783
0.01411139965057373
0.0141281858086586
0.0422540083527565
0.010264396667480469
-0.06732617318630219
-0.07827802747488022
0.0814383402466774
0.06675650924444199
-0.029771387577056885
0.02469766139984131
-0.03994401544332504
-0.02185988426208496
0.04529760032892227
0.08278969675302505
0.025296054780483246
-0.07291468232870102
-0.05212555453181267
0.06617919355630875
-0.004074610769748688
0.059810079634189606
0.003452204167842865
-0.04078815504908562
-0.02521425485610962
-0.008273936808109283
0.06809384375810623
-0.011906325817108154
-0.00962376594543457
0.021740354597568512
-0.03713450953364372
-0.02570972964167595
-0.010545410215854645
-0.0646447166800499
-0.01688438653945923
0.0405711755156517
-0.07425063848495483
-0.057203471660614014
-0.029086928814649582
-0.015531085431575775
0.009031690657138824
0.03432581573724747
-0.016985498368740082
0.03781262785196304
-0.07717927545309067
0.0346691831946373
0.002901792526245117
0.05478157848119736
-0.01697152853012085
0.009483002126216888
0.06766559928655624
-0.07219932973384857
-0.06387536227703094
-0.0016754642128944397
0.06243088096380234
0.020162582397460938
0.015383340418338776
-0.04225045442581177
0.0482945516705513
-0.04359636828303337
-0.021355174481868744
-0.04928354546427727
0.07483843713998795
0.020242631435394287
-0.02335844561457634
-0.009947218000888824
0.04835871607065201
0.006426870822906494
-0.01808154582977295
0.07980058342218399
0.0597614124417305
-0.052333276718854904
0.07476421445608139
0.01746765524148941
-0.04251351207494736
-0.021587572991847992
-0.020554043352603912
0.03654583543539047
-0.009254969656467438
0.020511329174041748
-0.0032944455742836
0.0188191756606102
-0.031852804124355316
-0.03586524724960327
0.061142273247241974
-0.04307731240987778
-0.010300196707248688
-0.05551991984248161
-0.03009830042719841
-0.027586542069911957
0.0012308135628700256
0.03424891084432602
-0.009173214435577393
-0.04264877364039421
0.007562160491943359
0.002615891396999359
0.06863395124673843
-0.036035239696502686
-0.07177865505218506
-0.020813941955566406
0.037412263453006744
-0.07120724767446518
-0.05131455510854721
-0.06367792934179306
0.06930413097143173
0.05095724016427994
0.014207981526851654
-0.04040402173995972
0.02954510599374771
-0.05134950205683708
0.01569875329732895
-0.0776761993765831
0.0065804123878479
-0.034522514790296555
-0.030735254287719727
-0.005695663392543793
0.04678265005350113
0.007925890386104584
0.004992567002773285
0.009863100945949554
0.001368798315525055
-0.058589182794094086
0.049773700535297394
0.014517903327941895
-0.04661756753921509
-0.060282133519649506
0.012518726289272308
-0.0635487288236618
-0.08052843809127808
-0.005636751651763916
-0.07350581884384155
0.017013154923915863
0.024070166051387787
-0.011590003967285156
-0.052256565541028976
-0.009849272668361664
0.08281392604112625
0.0754377469420433
0.035937391221523285
0.04296914488077164
-0.06023120880126953
0.04758111387491226
0.053993918001651764
-0.0457182340323925
-0.0444231852889061
0.03920312970876694
-0.07438033819198608
-0.05764033645391464
-0.015810512006282806
-0.06961324065923691
0.009853042662143707
-0.005889631807804108
-0.00472722202539444
-0.00028743594884872437
-0.07670535892248154
-0.02087501809000969
0.011734165251255035
-0.061403632164001465
-0.03307565301656723
0.05809599906206131
0.0755741074681282
0.023167766630649567
-0.08019596338272095
-0.04895273968577385
0.04234101623296738
-0.07623337209224701
-0.04636905714869499
0.037976883351802826
-0.006647266447544098
-0.07336211204528809
0.0771125927567482
0.03410470485687256
-0.04073246568441391
-0.02300693839788437
-0.005601406097412109
-0.04679682105779648
-0.04895130917429924
-0.027674518525600433
0.07243605703115463
-0.023183465003967285
-0.046652697026729584
-0.03299959748983383
-0.05882465839385986
0.03721219301223755
0.08010008186101913
0.0280662402510643
0.023573659360408783
-0.03754302114248276
-0.010540105402469635
0.07909030467271805
0.04712209850549698
0.06291622668504715
0.012276984751224518
-0.053970299661159515
0.006615854799747467
-0.009489119052886963
0.02640298753976822
-0.02983248233795166
-0.07582096755504608
-0.011304713785648346
-0.02652508020401001
-0.03120630979537964
-0.07250422239303589
-0.03868168592453003
-0.07388775050640106
-0.0656186193227768
-0.05425542593002319
-0.028444908559322357
-0.010744929313659668
-0.004840970039367676
-0.0455484613776207
-0.03309643268585205
-0.021752893924713135
0.05983468145132065
0.04923894256353378
0.02175607532262802
-0.05658004805445671
-0.05535026639699936
0.009723424911499023
0.03445545583963394
0.0637458935379982
0.01836472749710083
-0.07889758050441742
0.05841251462697983
0.02572222799062729
-0.037099502980709076
-0.07598184049129486
0.059211112558841705
0.07517019659280777
-0.03232389688491821
-0.04506220668554306
-0.07949163764715195
-0.018947340548038483
-0.02113109827041626
-0.04141432046890259
0.07978453487157822
0.040430329740047455
0.07532570511102676
-0.03605169057846069
0.06500657647848129
0.06704618781805038
-0.06966086477041245
-0.008551813662052155
0.07205162197351456
0.0652284100651741
0.02498999983072281
-0.04829857870936394
-0.07889082282781601
0.0202537402510643
-0.02716074511408806
0.07245764881372452
0.08101852983236313
0.017674721777439117
0.013012625277042389
-0.08148038387298584
0.05940280109643936
-0.01195593923330307
0.07267292588949203
0.003830552101135254
0.05897647887468338
0.04761221259832382
0.0058025941252708435
-0.06564410775899887
0.030421771109104156
0.057191334664821625
0.07158119231462479
-0.029430389404296875
-0.022420547902584076
0.004364870488643646
-0.06457092612981796
0.0733310654759407
0.02226223796606064
-0.05725709721446037
-0.04015326499938965
-0.030349932610988617
-0.062001507729291916
-0.05571733042597771
0.0630607083439827
0.04743484407663345
-0.06259217113256454
-0.012148283421993256
-0.07065083831548691
-0.062341175973415375
0.014014162123203278
-0.02529158443212509
-0.07873760163784027
0.052378036081790924
-0.02285315841436386
-0.06570722907781601
-0.02543143555521965
-0.029281239956617355
-0.025481484830379486
0.008887909352779388
-0.04790689796209335
0.049533165991306305
-0.019904732704162598
0.08226493746042252
0.003902137279510498
-0.033687055110931396
0.04887392371892929
0.051274336874485016
0.02166762202978134
0.0496465340256691
0.019738316535949707
-0.045246999710798264
-0.05795445293188095
0.0166856050491333
0.03575772047042847
0.015203036367893219
-0.06388859450817108
0.06230238825082779
0.015552639961242676
-0.01860032230615616
0.06701286882162094
0.0011102557182312012
-0.025581639260053635
0.059800781309604645
0.03333786875009537
-0.05189639329910278
-0.04353853315114975
-0.012534238398075104
-0.052260540425777435
-0.08269961923360825
0.05245194584131241
0.034405551850795746
0.012373089790344238
0.07306841760873795
0.04046443849802017
0.024323083460330963
-0.02755715698003769
-0.0643758624792099
0.05871213227510452
0.05907309800386429
0.0512058362364769
-0.02528204768896103
-0.034989356994628906
0.04778004437685013
-0.01888364553451538
-0.05546728894114494
0.028884314000606537
-0.013972915709018707
-0.058268606662750244
-0.05786444991827011
0.061744846403598785
0.0716472640633583
0.04472216218709946
-0.045491598546504974
-0.037635624408721924
-0.038184426724910736
0.061787210404872894
0.005978144705295563
-0.002967752516269684
0.08308181911706924
-0.005036115646362305
-0.008425869047641754
-0.03343510627746582
-0.04433920234441757
0.04970354586839676
0.051179490983486176
-0.08263715356588364
-0.07211139053106308
-0.07585901021957397
0.043112076818943024
-0.025283992290496826
-0.05503082275390625
0.005627728998661041
0.06595469266176224
-0.06214791536331177
-0.030684851109981537
-0.01012718677520752
0.05954166501760483
-0.046259842813014984
-0.06447283923625946
-0.012545622885227203
0.016149841248989105
-0.052564047276973724
0.002140223979949951
-0.04295551776885986
-0.0537063293159008
-0.01107931137084961
0.0653015747666359
-0.07538028806447983
-0.05183414742350578
-0.08286356925964355
-0.052412550896406174
-0.08001719415187836
0.05408362299203873
0.005854964256286621
-0.06613900512456894
0.04034789651632309
-0.009904764592647552
-0.06614232063293457
0.0556018128991127
-0.02407648414373398
-0.04896235466003418
0.034050680696964264
0.011034928262233734
-0.06018789857625961
0.032029032707214355
0.010622180998325348
0.015170514583587646
0.0078125
0.037848055362701416
-0.0797034353017807
0.046722300350666046
0.012117408215999603
0.07326389104127884
-0.02987983077764511
-0.06087183952331543
-0.06454452127218246
-0.01640143245458603
0.04802962392568588
-0.03966768831014633
-0.08122211694717407
-0.023270409554243088
0.009528040885925293
-0.08154013007879257
0.024139322340488434
-0.06333589553833008
0.0418497696518898
0.004045210778713226
-0.04039802402257919
0.005530275404453278
0.008836604654788971
0.07953394204378128
-0.08159524202346802
0.031728170812129974
0.07091746479272842
-0.021489381790161133
-0.05018812417984009
-0.0019362196326255798
-0.06327426433563232
-0.03179548308253288
0.08088543266057968
0.029352284967899323
0.009638406336307526
0.07051660865545273
0.0069672465324401855
0.04875066131353378
-0.0183805450797081
0.059226252138614655
-0.042866289615631104
-0.05164742469787598
0.037322960793972015
-0.004302285611629486
0.032799579203128815
0.06899150460958481
0.06321635097265244
0.06961245089769363
-0.018790386617183685
-0.03505297750234604
0.05694631487131119
-0.013816989958286285
-0.05065320059657097
-0.016180455684661865
0.01823868602514267
0.062248729169368744
0.025895632803440094
0.012375056743621826
0.05507906526327133
-0.016780875623226166
0.011987447738647461
0.047128744423389435
-0.03299248218536377
-0.059939008206129074
0.07629706710577011
0.052265070378780365
0.04196930676698685
0.0012260302901268005
-0.046984653919935226
0.03616908937692642
0.04157277196645737
0.06130374222993851
0.08133610337972641
-0.0009061917662620544
0.028021693229675293
-0.020900964736938477
-0.03346719592809677
-0.07417945563793182
-0.03384906053543091
-0.07984449714422226
0.04268326610326767
0.07240603119134903
-0.009081698954105377
0.06796664744615555
-0.02057502418756485
-0.03800702095031738
0.05550149828195572
0.041412271559238434
0.0003682374954223633
0.02498159557580948
-0.036614757031202316
-0.04334481805562973
0.07656098157167435
-0.010036610066890717
-0.018351636826992035
0.03523065894842148
-0.045905809849500656
-0.0419427752494812
0.059486158192157745
0.008499346673488617
-0.06567391008138657
0.037218593060970306
0.021281994879245758
-0.02891463041305542
-0.055735133588314056
-0.016359664499759674
0.04504891484975815
0.01827021688222885
0.03651181608438492
0.08003229647874832
0.0276397243142128
-0.050587475299835205
-0.0748588889837265
0.06944293528795242
-0.03490567207336426
0.0789022222161293
0.04484882205724716
0.0747389867901802
-0.06330490112304688
0.0713813379406929
-0.034170668572187424
-0.07744153589010239
0.010858021676540375
0.061378978192806244
0.006636537611484528
0.058377839624881744
-0.009013913571834564
0.05290886014699936
0.008626602590084076
-0.07954345643520355
0.038289666175842285
0.05803629010915756
0.0651635155081749
0.06617701798677444
0.01639491319656372
-0.07259108871221542
0.018730640411376953
-0.08261334896087646
0.02859363704919815
0.014256022870540619
0.012141548097133636
-0.07555663585662842
-0.0027631521224975586
-0.08035922050476074
-0.01347261667251587
0.010155953466892242
-0.02158357948064804
-0.02180616185069084
-0.0789196714758873
0.020877696573734283
-0.05797646567225456
0.05036628991365433
0.044221676886081696
-0.03516054153442383
-0.01932910829782486
-0.07461671531200409
-0.000979602336883545
-0.07228019088506699
-0.06728839874267578
-0.04113147780299187
-0.07389410585165024
0.015190444886684418
0.06187478452920914
0.0716218426823616
-0.03899284452199936
0.05413985997438431
-0.034914594143629074
-0.00267106294631958
-0.020033396780490875
-0.019650064408779144
0.009196855127811432
-0.008886180818080902
-0.00047376006841659546
0.05492953211069107
0.06910892575979233
0.06348832696676254
-0.03862994909286499
-0.07980887591838837
0.03221261501312256
-0.013239085674285889
0.07020280510187149
0.08219899982213974
-0.028961997479200363
-0.00664743036031723
-0.07523691654205322
-0.056398630142211914
0.04200879484415054
0.0824950709939003
-0.03582578897476196
0.05710054188966751
-0.02909763902425766
-0.015885688364505768
0.05309893935918808
-0.06762629747390747
0.03047797828912735
0.07544440776109695
0.0005917325615882874
0.04973682016134262
0.007728658616542816
-0.029960952699184418
0.06836249679327011
0.04169697314500809
0.032567523419857025
0.0813564732670784
0.0238686203956604
0.03259984403848648
-0.01327291876077652
0.03357364982366562
-0.027303319424390793
-0.04338967800140381
-0.06016566604375839
0.00918259471654892
-0.05396644398570061
0.07831574231386185
-0.06419377028942108
-0.06835812330245972
-0.055033765733242035
0.027545608580112457
-0.035640280693769455
-0.0797397717833519
-0.025396548211574554
0.06931961327791214
-0.05375484749674797
-0.04527483507990837
0.017235420644283295
-0.034845929592847824
0.009752988815307617
-0.07577317953109741
0.04400637000799179
0.03644782304763794
-0.01437467336654663
0.028337277472019196
0.0074829235672950745
0.04611135274171829
0.04438567906618118
0.04732731729745865
-0.03718060255050659
-0.018584035336971283
0.0033293142914772034
0.0360121950507164
0.04633692651987076
-0.06380965560674667
0.053453512489795685
0.06994215399026871
0.06847412139177322
-0.030875086784362793
-0.05034260079264641
0.07555434852838516
-0.07786472886800766
-0.055024921894073486
-0.027058802545070648
-0.07934796810150146
-0.004072330892086029
-0.010994397103786469
0.0018824934959411621
0.02854464203119278
-0.001436375081539154
-0.0494297556579113
-0.013048984110355377
-0.031015973538160324
-0.06442886590957642
-0.0004580840468406677
-0.04850463196635246
0.04443726688623428
0.0071883425116539
-0.0057668909430503845
0.034776486456394196
-0.054921865463256836
0.008002698421478271
-0.03502532094717026
0.01387777179479599
-0.0408029779791832
-0.047905683517456055
0.03868357092142105
-0.033801041543483734
0.0225120410323143
-0.051185332238674164
0.008668147027492523
0.0446167066693306
0.003957413136959076
-0.015942096710205078
-0.0013055205345153809
0.053926847875118256
-0.07834651321172714
0.028887130320072174
-0.017816662788391113
0.015859149396419525
0.031158827245235443
-0.04336009547114372
-0.03438079357147217
0.007491111755371094
-0.0008435249328613281
0.031701624393463135
0.03616684675216675
0.07038629800081253
0.04666260629892349
-0.08282876014709473
0.07925131171941757
0.0381459966301918
0.06508902460336685
0.009235359728336334
-0.06007818505167961
0.079518161714077
0.004282034933567047
-0.007112361490726471
-0.018158160150051117
-0.023403268307447433
0.059459589421749115
0.06196755915880203
-0.05414585396647453
0.06610945612192154
0.06900199502706528
-0.08206886053085327
-0.01511005312204361
0.08319247514009476
-0.05673031136393547
0.050566814839839935
-0.021477065980434418
-0.06870939582586288
0.05324406176805496
-0.06465284526348114
-0.012965001165866852
0.07602014392614365
0.042363204061985016
-0.04108665511012077
0.05999390035867691
-0.03040095418691635
0.06961769610643387
0.02333015203475952
0.07614908367395401
-0.031024854630231857
-0.04812779277563095
0.05893898755311966
0.02753347158432007
-0.016118429601192474
0.08027901500463486
0.028540492057800293
0.021744631230831146
0.0042565688490867615
0.0155092254281044
0.0337202325463295
-0.0718986839056015
0.05876366049051285
-0.034412942826747894
0.050455935299396515
-0.011842608451843262
0.06318589299917221
-0.016739189624786377
-0.020152054727077484
0.02694115787744522
0.0007801875472068787
0.022555626928806305
-0.013299167156219482
-0.0615491084754467
0.07455954700708389
0.034674979746341705
-0.077518031001091
-0.008146345615386963
-0.0742078423500061
0.045151807367801666
0.0032016411423683167
0.06484124809503555
0.03978618234395981
0.06462738662958145
-0.05803024768829346
-0.06743645668029785
0.015567503869533539
0.04098937660455704
-0.07865500450134277
0.07935438305139542
-0.07239669561386108
-0.07342463731765747
-0.034928202629089355
-0.02893378585577011
-0.022121988236904144
0.051589228212833405
-0.0294191837310791
-0.03789544105529785
0.0061432719230651855
0.0034396275877952576
-0.023194413632154465
-0.0597776398062706
0.07313216477632523
0.07762356847524643
0.044426329433918
0.06977761536836624
0.07656467705965042
-0.04203888028860092
0.05050203949213028
-0.019222915172576904
0.05808667093515396
0.0362996831536293
-0.0411723256111145
0.016294576227664948
-0.029740136116743088
-0.0446891188621521
0.05996914952993393
-0.016343295574188232
0.07813600450754166
-0.0746229737997055
-0.04187589883804321
0.048136256635189056
-0.03178270906209946
-0.011201463639736176
0.004732467234134674
0.038230717182159424
0.07536300271749496
-0.06508364528417587
-0.043977320194244385
0.047117672860622406
0.02389460802078247
-0.07742995023727417
0.008291743695735931
-0.02932804822921753
-0.029945354908704758
-0.030845604836940765
-0.021314483135938644
0.07488546520471573
-0.05827820301055908
-0.03908073902130127
0.04953593760728836
-0.06383061408996582
0.06085958331823349
-0.051549457013607025
0.05921942740678787
0.030715905129909515
0.0033062919974327087
-0.06051395460963249
0.0728665366768837
-0.06333335489034653
0.056999124586582184
0.025475718080997467
-0.04441158100962639
0.022351324558258057
0.058217667043209076
-0.07182776927947998
0.005694948136806488
-0.04749405384063721
0.02925696223974228
-0.0766468495130539
0.0527927502989769
-0.0752907395362854
-0.00988004356622696
-0.06384895741939545
0.05749867111444473
-0.017023444175720215
0.0756370797753334
-0.04569506645202637
0.012364305555820465
-0.061145346611738205
0.009815871715545654
0.004690051078796387
0.04516986757516861
0.03760824352502823
-0.0646282285451889
0.04758312553167343
-0.002621091902256012
-0.023388981819152832
-0.01934131234884262
0.0044441819190979
0.03965878486633301
-0.0362701416015625
-0.0543459877371788
-0.0612691268324852
-0.06762190908193588
-0.0716816633939743
-0.00791633129119873
-0.02830318734049797
-0.06761094182729721
0.07179392129182816
-0.03939181566238403
0.05243534594774246
0.060795463621616364
0.0031708702445030212
-0.028843604028224945
-0.010621093213558197
0.06949154287576675
-0.04747414588928223
-0.08019459247589111
0.05584738403558731
0.05448726564645767
0.08326495438814163
0.01825714111328125
0.049233995378017426
0.0013678893446922302
-0.0023072734475135803
0.04013127088546753
0.03952443599700928
-0.026145141571760178
-0.06523530185222626
-0.07750362157821655
0.020565055310726166
-0.07656242698431015
0.07081920653581619
-0.027647554874420166
-0.0765300840139389
-0.009558282792568207
0.05657569319009781
0.06492302566766739
0.08157256990671158
-0.029872100800275803
-0.07999227941036224
-0.048828642815351486
0.03175175189971924
-0.037796638906002045
0.04121595621109009
-0.06173118203878403
-0.021016936749219894
-0.03996153920888901
0.0005852356553077698
0.0015343204140663147
-0.020144961774349213
-0.03033004328608513
0.048588044941425323
0.07239226251840591
-0.07932679355144501
-0.01831243187189102
-0.018832601606845856
0.04696083813905716
0.016009725630283356
0.008082829415798187
0.010248780250549316
-0.06508272886276245
-0.03311620280146599
0.028656363487243652
0.07168664783239365
0.021013997495174408
0.03371725231409073
-0.003013111650943756
-0.036679707467556
-0.028235875070095062
-0.05730414390563965
-0.07948698848485947
-0.07278233766555786
-0.062258802354335785
0.032241858541965485
-0.02854933589696884
-0.08091404289007187
0.018845975399017334
0.038458824157714844
0.00987253338098526
-0.0739220380783081
0.008536577224731445
-0.021110497415065765
-0.01308298110961914
0.06473959237337112
0.004297755658626556
-0.024734199047088623
0.071170873939991
0.01843559741973877
-0.07208206504583359
0.07155350595712662
0.014730967581272125
0.03602955490350723
-0.014995776116847992
0.0198415145277977
-0.07588136196136475
0.016401611268520355
-0.04409196227788925
-0.02984607219696045
0.05485955625772476
0.06994912773370743
0.050370655953884125
0.04179737716913223
0.008133314549922943
-0.07479004561901093
0.007849454879760742
-0.051708102226257324
0.018370389938354492
-0.01850426197052002
0.003454647958278656
0.05333478003740311
-0.07032561302185059
-0.08103211969137192
0.051261670887470245
0.053392745554447174
-0.03622689098119736
0.05188039690256119
-0.04943321272730827
-0.006475426256656647
0.048318661749362946
-0.045607589185237885
0.05080772191286087
-0.0808640569448471
0.03428991883993149
-0.002525545656681061
0.047824226319789886
-0.014011859893798828
-0.05658392235636711
-0.015049241483211517
0.06130794435739517
-0.06938904523849487
-0.03363841772079468
0.04504791647195816
0.07651645690202713
0.06913072615861893
-0.07147590816020966
-0.0634707659482956
0.07014540582895279
0.047261081635951996
-0.029927097260951996
0.04203013330698013
-0.07811751216650009
-0.05677342414855957
0.041130244731903076
0.05052772909402847
0.020931877195835114
-0.011182248592376709
-0.04393335431814194
0.009446285665035248
-0.02385040372610092
0.010801352560520172
0.03797421604394913
0.01874222606420517
0.06316331773996353
0.03729424625635147
0.03864610195159912
0.05357689410448074
-0.02878107875585556
-0.06054403632879257
0.00955720990896225
-0.046954572200775146
-0.06731178611516953
-0.010022640228271484
0.03815671056509018
0.062182746827602386
-0.07308276742696762
-0.03448363393545151
-0.0032179132103919983
0.035052262246608734
0.01785486936569214
-0.014625035226345062
0.07572091370820999
0.024384774267673492
-0.023090742528438568
0.004024304449558258
-0.04466184228658676
0.005559884011745453
-0.018343649804592133
0.07607970386743546
-0.02801734209060669
0.039142511785030365
-0.05320936441421509
0.0027547255158424377
0.016113877296447754
0.061279915273189545
0.051056183874607086
0.030834712088108063
0.02894105762243271
0.06449586898088455
-0.030673563480377197
-0.0364045724272728
-0.05506809800863266
-0.06283774226903915
-0.06021936982870102
0.03681755065917969
0.053677164018154144
0.051839910447597504
-0.03973456472158432
-0.009627841413021088
-0.059626124799251556
0.0769953802227974
0.031041942536830902
-0.060501061379909515
-0.024889569729566574
0.05862162262201309
-0.03877435252070427
-0.05121666193008423
-0.06737091392278671
-0.004626810550689697
0.0585612878203392
0.024656333029270172
-0.052812278270721436
-0.028973780572414398
-0.014780960977077484
-0.07330630719661713
0.012219585478305817
0.038281023502349854
-0.044833384454250336
-0.0001765117049217224
0.08072424679994583
-0.01884162425994873
-0.01789233833551407
0.07974310964345932
-0.048067908734083176
0.06738073378801346
-0.03511206433176994
-0.03895437717437744
0.028216898441314697
-0.020045578479766846
0.07481052726507187
0.00960562378168106
0.07536620646715164
0.04474505037069321
0.07459376007318497
0.005086265504360199
-0.008719421923160553
0.07361388951539993
0.01771935075521469
-0.005870424211025238
-0.023669283837080002
0.07640475779771805
0.03924288600683212
-0.06281819194555283
-0.021618090569972992
-0.06926357746124268
-0.047572553157806396
-0.03536071628332138
-0.021294277161359787
-0.059750478714704514
-0.01988784223794937
-0.032545965164899826
-0.05414623022079468
0.05748780816793442
-0.0692092627286911
-0.05026587098836899
0.013062037527561188
-0.082131028175354
-0.04696987196803093
-0.06672056764364243
-0.07769497483968735
0.028749965131282806
0.07361800223588943
-0.0038552656769752502
0.03984185308218002
-0.048949044197797775
-0.050506532192230225
0.05127082020044327
-0.04687619209289551
-0.03410717099905014
0.04448036104440689
0.013146638870239258
0.07102025300264359
0.014187037944793701
0.058226071298122406
-0.06993985176086426
-0.04858313128352165
0.006826959550380707
0.023614227771759033
0.05770034343004227
0.014212153851985931
0.05734432488679886
0.07861336320638657
0.03796020895242691
-0.07547557353973389
-0.026816509664058685
0.0734640583395958
0.00125817209482193
0.06303603202104568
-0.07115042209625244
-0.03441157191991806
-0.039313893765211105
0.029167987406253815
-0.06493620574474335
0.004107199609279633
-0.0004649534821510315
0.053495727479457855
0.06094922870397568
0.07639453560113907
-0.012138724327087402
0.03316875547170639
0.0007875338196754456
-0.07947500795125961
0.036679722368717194
-0.0048719048500061035
0.008592583239078522
-0.05645829439163208
-0.0608939528465271
-0.026102721691131592
0.020438887178897858
0.04922262579202652
-0.05600857734680176
0.053888700902462006
0.08079155534505844
0.02260291576385498
-0.04135749861598015
-0.0474931001663208
-0.08123479783535004
-0.07113683223724365
-0.022175908088684082
-0.07141822576522827
-0.028963766992092133
-0.0364111065864563
-0.05670058727264404
0.07859423011541367
0.04841599613428116
0.007274903357028961
0.020356513559818268
-0.05758091062307358
0.05132467299699783
-0.055497169494628906
0.05780322104692459
3.314018249511719e-05
-0.07052533328533173
-0.009721063077449799
-0.032717011868953705
0.0762537494301796
-0.0724683403968811
0.036191798746585846
0.03631087392568588
-0.02269812673330307
0.04509910196065903
0.030580081045627594
-0.07822176069021225
-0.001990675926208496
-0.03260086104273796
-0.040831588208675385
-0.06304644048213959
0.033719502389431
-0.03503972291946411
-0.05063974857330322
0.05802912265062332
0.04411143809556961
0.07654205709695816
-0.08049698919057846
-0.048036836087703705
-0.06818926334381104
-0.04654359817504883
0.06769580394029617
0.07141298800706863
-0.06277255713939667
0.04552007466554642
-0.0322207435965538
0.059769339859485626
0.005423270165920258
0.06298751384019852
-0.04364852234721184
0.0811779573559761
0.046797432005405426
0.027218878269195557
-0.049398601055145264
0.047290049493312836
-0.03613295406103134
-0.007004261016845703
0.07104486972093582
-0.021084725856781006
0.043726660311222076
-0.04334549233317375
0.07163748890161514
-0.03219018504023552
-0.02751237154006958
0.07283628731966019
0.008261896669864655
0.046391405165195465
0.04215521365404129
-0.053105276077985764
0.017501629889011383
-0.006036914885044098
0.05773145705461502
-0.07814612239599228
-0.059639036655426025
0.02377030998468399
-0.025452077388763428
-0.051078736782073975
-0.03474738448858261
-0.020900767296552658
0.07158995419740677
-0.07026658952236176
0.04463716596364975
0.07690604776144028
-0.004526950418949127
-0.053131818771362305
-0.00186234712600708
0.02847067266702652
0.006634749472141266
-0.04468584060668945
0.0325721874833107
0.01549750566482544
-0.058269958943128586
-0.052820682525634766
0.04438330978155136
0.03903692960739136
0.01639878749847412
-0.017038680613040924
-0.04949484393000603
0.026347734034061432
-0.00041184574365615845
0.07457383722066879
0.03947943449020386
0.010434329509735107
-0.01771491765975952
-0.0656968355178833
0.03476379066705704
0.03100067377090454
0.040444694459438324
0.0001257285475730896
0.04237816482782364
0.0645773783326149
-0.0075851306319236755
0.03189796209335327
-0.005103267729282379
0.05619043856859207
0.03192039579153061
-0.036804817616939545
-0.01861538738012314
-0.001235462725162506
0.06836821883916855
-0.057637691497802734
0.0426609143614769
-0.036838334053754807
0.08017206937074661
-0.029312968254089355
-0.017608702182769775
-0.05714517831802368
0.006411515176296234
0.0783151164650917
0.07985249906778336
0.008953630924224854
-0.01791337877511978
0.04255426675081253
-0.017680548131465912
0.05129573494195938
0.007925130426883698
-0.04145149514079094
-0.02772456407546997
-0.07304313033819199
0.0318371057510376
-0.020543895661830902
-0.02405283972620964
0.08058186620473862
-0.043645840138196945
0.07716045528650284
0.010538280010223389
-0.07625886052846909
0.04815687984228134
-0.004547320306301117
-0.05347667261958122
-0.06851702928543091
-0.03143277019262314
0.056609995663166046
-0.041814010590314865
-0.0198974609375
0.013906419277191162
0.03605904430150986
0.020722627639770508
0.007204495370388031
-0.052746813744306564
-0.0472920760512352
-0.018218614161014557
0.04091761261224747
0.07700125128030777
-0.06485003232955933
0.07784994691610336
-0.07254306972026825
-0.0610375814139843
0.03484225273132324
0.0031987428665161133
0.02316141128540039
0.06383433192968369
0.07697222381830215
-0.05089555308222771
-0.018986500799655914
-0.06400543451309204
0.020627617835998535
-0.028953634202480316
0.07595349103212357
-0.033827923238277435
0.01088637113571167
0.07979656010866165
-0.06593199819326401
0.030690528452396393
0.0032223686575889587
-0.008111871778964996
0.07436919957399368
-0.040114741772413254
-0.02054494619369507
-0.01889195293188095
0.04412863403558731
-0.016824208199977875
0.05371386557817459
0.05703902989625931
0.047352589666843414
-0.03727118298411369
0.03299907594919205
0.06816158443689346
-0.05963005870580673
0.0756499394774437
-0.07493859529495239
-0.07841440290212631
-0.07603812217712402
-0.05530037730932236
0.024189390242099762
-0.03819817304611206
0.0356992706656456
-0.012976683676242828
-0.025168858468532562
-0.02335268259048462
-0.07895267009735107
0.06883902102708817
-0.0640014037489891
-0.0815650224685669
0.03385064750909805
-0.07703125476837158
0.030724644660949707
-0.007821477949619293
0.03086642175912857
0.07828987389802933
-0.017610788345336914
0.022965312004089355
0.022623024880886078
-0.004468977451324463
0.05247051268815994
0.02523181587457657
0.044922031462192535
0.010126031935214996
0.035949207842350006
-0.03447725623846054
-0.0706821084022522
-0.03986790031194687
0.023498915135860443
-0.008406676352024078
-0.019120335578918457
-0.03262939304113388
-0.057580552995204926
-0.05925862118601799
0.004299856722354889
0.042077504098415375
-0.06391720473766327
0.046202488243579865
0.013839267194271088
0.062296055257320404
-0.004313863813877106
0.0635572150349617
-0.03599238395690918
-0.04805424064397812
0.01597418636083603
-0.03675220534205437
-0.02210744470357895
-0.046466629952192307
-0.019950151443481445
0.06508543342351913
-0.03035130351781845
-0.010672450065612793
0.08332473784685135
-0.008770167827606201
0.08331651240587234
0.026822566986083984
-0.004617907106876373
0.05166400223970413
0.030746735632419586
0.05566386133432388
0.014986835420131683
0.06871292740106583
0.03538095951080322
0.043290503323078156
-0.0003126487135887146
0.0005286335945129395
0.07456418126821518
0.01823733001947403
-0.0201619490981102
-0.08007856458425522
0.0687977746129036
0.0663229301571846
0.01128000020980835
0.07318481057882309
0.03602942079305649
-0.013978302478790283
0.002368532121181488
-0.058114372193813324
-0.024128716439008713
0.06864798814058304
-0.013141274452209473
0.034767307341098785
0.0034025534987449646
-0.040128789842128754
0.036179982125759125
0.008359827101230621
-0.02171623706817627
0.021776892244815826
-0.004759691655635834
0.044927872717380524
-0.06552504003047943
-0.03818092867732048
-0.07486192882061005
0.06980814784765244
0.03927680104970932
0.030772604048252106
-0.03104410693049431
0.07987559586763382
0.04270114749670029
-0.01801818609237671
-0.0655762180685997
0.07028544694185257
-0.010241925716400146
-0.047599874436855316
-0.07999370992183685
0.013359129428863525
-0.017093218863010406
-0.010859273374080658
-0.04800361394882202
-0.022236090153455734
0.07594949752092361
0.025511540472507477
0.019198715686798096
-0.040226321667432785
-0.07096868753433228
0.019505977630615234
0.025266505777835846
-0.04891151189804077
-0.01990542560815811
-0.0403217077255249
0.03355804830789566
0.04666336625814438
0.06833428889513016
-0.07279845327138901
-0.03520659729838371
-0.007074512541294098
0.06573077291250229
0.08182070404291153
0.026091158390045166
-0.07993863523006439
0.06268837302923203
-0.07722073793411255
-0.08172206580638885
0.0193939208984375
0.04879108816385269
0.036864496767520905
0.07835645228624344
-0.05982702970504761
-0.07580544799566269
-0.07983696460723877
-0.05173180624842644
0.0015035271644592285
0.04355581849813461
0.07738003879785538
-0.01579616218805313
0.004666723310947418
0.04599454253911972
0.01179184764623642
-0.08166623115539551
0.008675120770931244
0.07415256649255753
-0.08021261543035507
0.08212775737047195
0.0015222430229187012
-0.018113672733306885
-0.021643202751874924
-0.007130585610866547
-0.036265891045331955
-0.014424465596675873
-0.027496755123138428
-0.07253408432006836
-0.011901117861270905
-0.05565124750137329
0.014140285551548004
0.08203092962503433
-0.04203101247549057
-0.004684031009674072
0.014395356178283691
0.052558667957782745
-0.015609145164489746
0.023567520081996918
-0.038083575665950775
0.01164112240076065
0.03310602903366089
0.07280073314905167
-0.05455845594406128
-0.056478820741176605
0.048778094351291656
0.06607750803232193
0.019147969782352448
0.060676537454128265
-0.042446792125701904
-0.05888565629720688
0.06846155971288681
-0.07344361394643784
0.006584979593753815
-0.0008636340498924255
-0.008453369140625
0.014526963233947754
0.045745693147182465
0.011748276650905609
-0.03801216930150986
-0.031610868871212006
-0.07346880435943604
-0.01269165426492691
-0.029554646462202072
0.05147991329431534
-0.06649148464202881
0.01646336168050766
-0.015298783779144287
-0.014628566801548004
-0.062118273228406906
0.008832238614559174
-0.04691573232412338
0.0024537071585655212
-0.016708888113498688
0.04467561095952988
0.07510233670473099
0.01865452527999878
-0.027533214539289474
0.07755532115697861
0.03446187824010849
-0.07790162414312363
-0.05652385950088501
-0.0659743994474411
0.02776658535003662
-0.08033629506826401
0.0814889445900917
0.004624404013156891
-0.07553380727767944
0.02843364328145981
-0.066997230052948
0.045538030564785004
-0.03313760086894035
-0.05884387344121933
-0.06361635774374008
-0.07760878652334213
0.04987005144357681
0.022770307958126068
0.05148763209581375
0.08277031034231186
-0.029416166245937347
0.07272902876138687
0.045119233429431915
0.038220226764678955
-0.06208082288503647
0.02510831505060196
0.015437722206115723
0.03138277679681778
0.06440333276987076
-0.011795900762081146
0.009437143802642822
-0.001966536045074463
-0.02048637717962265
-0.0015750899910926819
0.006915651261806488
0.003049910068511963
-0.018606923520565033
-0.030549369752407074
0.011308632791042328
0.03054291009902954
-0.030692558735609055
-0.05157989263534546
0.05516848713159561
0.018771789968013763
-0.07674916833639145
-0.07803575694561005
0.03335052728652954
0.08036083728075027
0.03697103261947632
-0.05382794141769409
0.051905713975429535
0.010270655155181885
-0.024722538888454437
0.07384688407182693
-0.05759332701563835
-0.023308120667934418
0.02204861491918564
-0.035089969635009766
-0.05527693033218384
-0.021766923367977142
-0.05553539842367172
-0.06373994052410126
0.017439626157283783
-0.04705800861120224
-0.04846014827489853
-0.06337583065032959
0.07889694720506668
0.033041201531887054
-0.013469159603118896
-0.05448375269770622
0.017604589462280273
0.012816227972507477
-0.042430125176906586
0.04955948144197464
0.020333826541900635
-0.01921677589416504
-0.04612752050161362
-0.04171385616064072
5.793571472167969e-05
0.00356128066778183
0.02943277359008789
-0.04843926429748535
0.0679260864853859
-0.04975603148341179
0.009532071650028229
0.015143655240535736
0.058022476732730865
-0.051244936883449554
-0.041719935834407806
-0.02758260816335678
0.038887083530426025
-0.04089222475886345
-0.0053285956382751465
-0.01686032861471176
-0.03443696349859238
0.039330996572971344
0.004525817930698395
0.052558012306690216
-0.028887271881103516
0.05773911625146866
0.07418627291917801
0.06360242515802383
-0.06560178846120834
0.026960350573062897
0.017810344696044922
-0.07202683389186859
-0.0586727075278759
-0.022186338901519775
0.08030768483877182
-0.007411442697048187
0.05509301275014877
0.07705339044332504
0.06894946843385696
-0.038361966609954834
0.020392917096614838
-0.0733519047498703
0.05016794055700302
0.029160894453525543
0.07932182401418686
0.035369135439395905
0.06192455440759659
-0.08036476373672485
0.022826969623565674
-0.015213370323181152
-0.06440836191177368
-0.06955602020025253
0.03322134166955948
-0.04306453466415405
-0.05067231506109238
0.051908157765865326
0.03349369764328003
0.07115212827920914
0.04743526130914688
-0.04565463587641716
-0.038474343717098236
-0.04965291544795036
-0.07573167979717255
0.014245070517063141
0.04714066535234451
-0.0568692684173584
0.013433374464511871
-0.0020838379859924316
-0.05097290128469467
-0.07108008861541748
-0.07785423845052719
-0.01269378513097763
0.07202587276697159
0.07876051217317581
-0.028280340135097504
0.08016768842935562
0.012580431997776031
0.02853371948003769
0.028957784175872803
-0.013022936880588531
0.01511307805776596
0.07791563123464584
-0.016074061393737793
-0.04722875356674194
-0.059248290956020355
0.07986225932836533
-0.0718810185790062
0.009911678731441498
-0.054820142686367035
-0.07328860461711884
0.0012045875191688538
-0.06043454259634018
0.04103264957666397
-0.0609821081161499
-0.036329589784145355
-0.052265167236328125
-0.05402914807200432
0.06935008615255356
-0.032937467098236084
0.035779617726802826
-0.0748235210776329
-0.08330883830785751
0.03659167140722275
0.039870522916316986
-0.06532850116491318
-0.0016142353415489197
0.021912097930908203
-0.07359349727630615
0.033346988260746
0.04376787692308426
-0.016594968736171722
0.04214242845773697
0.01227489858865738
-0.05447785183787346
0.03477257490158081
-0.023502789437770844
-0.06633224338293076
-0.07898986339569092
-0.058925628662109375
0.02710358053445816
-0.06640537828207016
0.0026060938835144043
-0.06002321094274521
0.06281373649835587
0.05522311478853226
0.013417087495326996
-0.05490724369883537
0.012329161167144775
-0.041058819741010666
0.04088904708623886
0.06756982952356339
-0.008970178663730621
-0.017314158380031586
0.06557627767324448
-0.01520904153585434
-0.07748164981603622
0.014839231967926025
-0.052142322063446045
-0.035559557378292084
-0.040405433624982834
-0.05194910615682602
-0.04107409715652466
0.08281787484884262
-0.007788896560668945
-0.0014474168419837952
0.04976428300142288
-0.02629309892654419
-0.07080426067113876
0.06321927160024643
0.0159546360373497
-0.05131399631500244
-0.06802462041378021
-0.03692726418375969
0.06024964898824692
0.06500907987356186
-0.04402017593383789
-0.011540234088897705
-0.001108311116695404
-0.052902817726135254
0.054630376398563385
-0.057661812752485275
0.025592900812625885
-0.05246704816818237
0.01870373636484146
0.019921384751796722
0.061340756714344025
-0.022668540477752686
0.00033036619424819946
0.06916827708482742
-0.07259609550237656
-0.07670645415782928
0.053477682173252106
0.04191506654024124
0.0524425283074379
0.06115192919969559
0.036397479474544525
0.02038828283548355
-0.05652785301208496
0.013580165803432465
0.05520131438970566
0.06523790210485458
0.023233436048030853
-0.06955903768539429
-0.06297092139720917
0.06666190177202225
-0.04377216100692749
0.027255035936832428
0.07802601903676987
-0.027588188648223877
-0.0655890554189682
0.07577899843454361
-0.039414070546627045
0.01377943903207779
-0.03490205854177475
-0.020197652280330658
-0.05379253625869751
-0.033323585987091064
0.017193377017974854
-0.0758436769247055
-0.05176357552409172
0.0003592148423194885
0.04866719990968704
-0.031757891178131104
0.053093381226062775
-0.009935222566127777
-0.045311033725738525
-0.029268525540828705
-0.04682370275259018
0.008555196225643158
0.005502462387084961
0.0703054890036583
0.014849625527858734
0.022636987268924713
0.001377604901790619
-0.008464954793453217
0.06165727227926254
-0.007453501224517822
-0.025467276573181152
-0.07199820131063461
-0.08189988136291504
-0.00901484489440918
-0.005880497395992279
-0.04376045987010002
-0.04498754069209099
-0.05308256670832634
0.013306580483913422
0.03384643793106079
0.031338728964328766
0.035921610891819
0.03392066806554794
0.06558213382959366
0.035657547414302826
0.04328704625368118
-0.05462747812271118
-0.038338981568813324
0.01270505040884018
-0.01244741678237915
0.05324850231409073
-0.05291507765650749
-0.012717962265014648
-0.02584606409072876
-0.025938987731933594
0.016733191907405853
0.020737014710903168
-0.06146713346242905
0.07111776620149612
-0.04570049047470093
0.04225287586450577
0.05241302400827408
-0.03019825741648674
0.016615726053714752
0.060670383274555206
0.015550673007965088
-0.06916990131139755
0.01872462034225464
-0.014524698257446289
0.06269151717424393
-0.03071737289428711
-0.04654344171285629
-0.04215828701853752
0.004079997539520264
-0.04808849096298218
-0.014041639864444733
0.05321703106164932
0.02255406230688095
0.0260222926735878
0.045736320316791534
-0.005881808698177338
0.02824467420578003
0.042509280145168304
-0.010759271681308746
0.03294041007757187
0.010731004178524017
0.002208985388278961
-0.07243126630783081
-0.07138346135616302
0.08034392446279526
0.07972773164510727
0.017255745828151703
-0.06899923086166382
0.03812096267938614
0.04351731389760971
-0.021300416439771652
0.08065953105688095
-0.056183576583862305
-0.0084434375166893
0.010072626173496246
-0.020874004811048508
0.049778737127780914
-0.0574486069381237
-0.03323684260249138
0.03293899446725845
-0.05811077356338501
-0.06767205893993378
-0.07821204513311386
-0.052902162075042725
-0.0711895078420639
0.016882598400115967
-0.003512345254421234
0.07385142892599106
0.05899836868047714
0.027305878698825836
0.04481295496225357
0.05950310081243515
-0.036071084439754486
-0.06932564824819565
0.03003326803445816
-0.009220339357852936
-0.029986046254634857
0.06663354486227036
-0.041738491505384445
0.023869119584560394
0.05297806113958359
0.0036410316824913025
-0.06079719588160515
0.0057103633880615234
-0.006675779819488525
-0.011842511594295502
-0.015299439430236816
-0.04304584115743637
0.0829758420586586
-0.024366717785596848
0.06288977712392807
-0.03293663263320923
-0.022382400929927826
0.025996603071689606
-0.024234753102064133
-0.07678794860839844
0.03780706971883774
0.03171209245920181
0.022404812276363373
0.029259882867336273
0.02054397016763687
0.07630179077386856
0.054681144654750824
-0.01319587230682373
0.04194105416536331
-0.028755050152540207
-0.012736357748508453
0.07857999950647354
-0.05477454513311386
-0.03251747414469719
-0.0628558024764061
-0.03278674930334091
-0.021520715206861496
0.056806884706020355
-0.056235771626234055
0.0785427913069725
-0.07371120154857635
-0.006265319883823395
-0.08271569013595581
-0.06629715859889984
0.06548307090997696
0.06867767125368118
0.030289746820926666
-0.07405736297369003
0.043856002390384674
0.06787527352571487
0.0446958914399147
-0.0814170241355896
0.013498403131961823
-0.0119728222489357
-0.03206136077642441
-0.0692768320441246
0.03818532079458237
0.0387454628944397
0.08007705956697464
-0.05791847035288811
0.022086046636104584
0.0439949706196785
0.00922539085149765
-0.04529794305562973
-0.029755890369415283
0.06043744832277298
-0.03450546786189079
0.049932681024074554
-0.013357877731323242
-0.0029049143195152283
-0.010516606271266937
0.03344251960515976
0.012446321547031403
0.054750390350818634
0.0258953794836998
-0.03473222255706787
0.06832095235586166
0.07820165902376175
0.06772703677415848
-0.008760727941989899
-0.0753764733672142
0.0526522621512413
0.04987848550081253
0.06661183387041092
0.024854205548763275
0.0817427709698677
-0.0007316470146179199
0.04412323981523514
0.02700704336166382
0.002271987497806549
0.06778023391962051
-0.030251048505306244
-0.03947164863348007
-0.07363802194595337
0.0552845224738121
-0.045190416276454926
0.01360863447189331
-0.023201506584882736
0.06003119796514511
-0.06583510339260101
0.08203532546758652
-0.031250737607479095
-0.07688158750534058
-0.05249524116516113
-0.04017271846532822
-0.0311189703643322
0.042711205780506134
0.008191227912902832
-0.020452678203582764
-0.05335346981883049
0.08230257779359818
-0.06117765232920647
-0.015543617308139801
-0.03951909393072128
0.034260451793670654
0.03640246391296387
-0.06728392839431763
-0.006243430078029633
-0.03953031823039055
0.06903863698244095
-0.013147450983524323
0.07028188556432724
-0.06369539350271225
-0.05980120226740837
-0.003781437873840332
0.02486952394247055
-0.029152117669582367
-0.07197251170873642
-0.031232737004756927
0.034876905381679535
-0.05321566388010979
0.06212950497865677
-0.04231154918670654
0.055616043508052826
-0.05891396850347519
0.035230375826358795
-0.08050793409347534
-0.0183815136551857
0.007600463926792145
0.08287949115037918
0.06318772584199905
0.021105967462062836
-0.04746780917048454
-0.07984467595815659
0.03631871938705444
-0.05453215166926384
-0.038697659969329834
-0.06696832180023193
-0.0077548399567604065
-0.0196632519364357
0.011768020689487457
-0.01702650636434555
-0.02264336869120598
-0.028216086328029633
-0.02985161542892456
-0.05070682615041733
0.05503816157579422
0.06229374557733536
-0.008151412010192871
-0.011767350137233734
-0.0014892444014549255
-0.046090126037597656
0.04005599021911621
-0.02749001979827881
-0.032877467572689056
-0.036690376698970795
-0.00880342721939087
0.04242614656686783
0.06297024339437485
-0.05652263015508652
0.06013164669275284
0.03183720260858536
0.010660625994205475
0.06056896597146988
-0.04172077029943466
-0.0804969072341919
0.07309845834970474
-0.006403207778930664
-0.0699659213423729
0.061469800770282745
0.048885248601436615
0.027599431574344635
-0.01841127872467041
-0.01261957734823227
-0.03875601291656494
0.03176555782556534
-0.05564745515584946
0.06471248716115952
-0.07172070443630219
0.04527873545885086
0.062436945736408234
0.02499852329492569
0.07632776349782944
0.021420679986476898
0.017066538333892822
-0.018342696130275726
0.04129936546087265
0.0013730749487876892
-0.056602995842695236
-0.0428156852722168
0.01491323858499527
0.0768769159913063
0.04607845097780228
0.04340497404336929
-0.07951631397008896
0.018388472497463226
-0.0770009383559227
-0.0698796734213829
-0.07657404989004135
-0.03681793063879013
-0.06591256707906723
0.07782057672739029
0.008414745330810547
0.01606907695531845
-0.07796651124954224
-0.07087423652410507
0.01768181473016739
-0.08118309825658798
0.0077689290046691895
-0.06272214651107788
0.026150308549404144
-0.017869234085083008
0.05263974517583847
0.05944559723138809
0.04165583848953247
0.03345060348510742
-0.05019098520278931
-0.03685297816991806
0.014077924191951752
0.01008143275976181
0.04499717801809311
0.0003549829125404358
0.017424285411834717
0.08031109720468521
-0.01822298765182495
-0.02047618478536606
-0.027371566742658615
0.03902542591094971
0.011556901037693024
-0.07974915206432343
-0.05979905650019646
-0.01992788165807724
0.035003662109375
-0.013043500483036041
0.07586643844842911
0.06612224131822586
-0.03488028049468994
-0.012969352304935455
0.053022630512714386
0.010790608823299408
-0.047100286930799484
0.027575455605983734
-0.028151333332061768
0.05738785117864609
0.03385657072067261
0.07711950689554214
-0.07648297399282455
0.009060777723789215
0.006069757044315338
-0.047317467629909515
0.03591277450323105
0.0740763321518898
-0.041592102497816086
0.061243243515491486
-0.03612220287322998
-0.019543789327144623
-0.07282291352748871
0.06268217414617538
0.017306648194789886
0.05029013007879257
-0.034092050045728683
-0.05266926810145378
0.06839694827795029
0.030666649341583252
0.05719051510095596
-0.020785413682460785
0.019214846193790436
0.07792732864618301
-0.009925521910190582
-0.049419086426496506
0.01669633388519287
-0.003555871546268463
0.05664081126451492
0.045785821974277496
-0.07897303998470306
-0.08312803506851196
-0.058091841638088226
0.06396741420030594
0.06486586481332779
-0.023215971887111664
0.041615843772888184
0.022680997848510742
-0.05310213565826416
-0.0048843249678611755
0.045888982713222504
0.054628886282444
-0.07276815176010132
-0.034470897167921066
0.05645319074392319
-0.017426393926143646
0.05320671945810318
-1.0952353477478027e-06
-0.0010532960295677185
0.019255124032497406
0.08201154321432114
0.02522808313369751
-0.0034421905875205994
0.07345793396234512
0.007415078580379486
0.006586574018001556
0.07437137514352798
-0.03481731936335564
0.0689699724316597
-0.03315725177526474
-0.025766372680664062
0.05289425700902939
0.048966966569423676
-0.04338151216506958
-0.021883726119995117
0.06574144214391708
-0.08331316709518433
-0.06097255274653435
0.06801367551088333
0.015364490449428558
0.07347854226827621
-0.027653776109218597
-0.0349157452583313
-0.0016883835196495056
0.07272962480783463
-0.053719740360975266
0.03363599628210068
0.02475297451019287
0.030479751527309418
0.023024164140224457
-0.05512658879160881
0.08329851180315018
0.013906121253967285
0.051915012300014496
0.07858677953481674
-0.033593833446502686
-0.011743150651454926
-0.07124859094619751
-0.06958121061325073
0.013116873800754547
0.05662623792886734
-0.07721011340618134
0.027408339083194733
-0.06756560504436493
0.012867473065853119
0.03665649890899658
-0.03548353910446167
-0.009875990450382233
0.05188926309347153
0.015309371054172516
0.022444844245910645
-0.02241107076406479
0.08012682944536209
-0.0684608668088913
0.044414959847927094
0.07256553322076797
0.054418183863162994
0.020285271108150482
0.03231380134820938
0.0442676767706871
0.021030448377132416
0.013640441000461578
-0.032454412430524826
-0.07527850568294525
-0.020603321492671967
-0.001203201711177826
0.03484586626291275
-0.05404917523264885
0.0011415854096412659
-0.04576905816793442
0.05514939874410629
-0.07706036418676376
0.0685332641005516
0.038849733769893646
0.06853184849023819
-0.08125315606594086
0.07621217519044876
-0.027638517320156097
-0.011135242879390717
0.026826202869415283
-0.06400828063488007
-0.04312010854482651
-0.06033313274383545
0.03750155121088028
0.0694241002202034
-0.05654209852218628
0.018225371837615967
0.043672166764736176
0.014176011085510254
0.06805960088968277
-0.07355664670467377
0.08071527630090714
0.07494571059942245
-0.06187542527914047
-0.08122595399618149
0.035508595407009125
-0.0197371244430542
0.07892467826604843
0.009107232093811035
-0.04992399737238884
0.010462246835231781
-0.018695436418056488
0.051740922033786774
0.002352796494960785
-0.051879607141017914
0.04805157333612442
-0.03432053327560425
-0.008622407913208008
0.019689060747623444
-0.06165389344096184
0.05883074551820755
0.07795912772417068
0.07552415877580643
-0.07319846004247665
0.06337114423513412
-0.06251698732376099
0.03199491649866104
-0.056295596063137054
-0.00023170560598373413
-0.06130272150039673
-0.03903031349182129
-0.030354224145412445
0.032905496656894684
-0.03339628502726555
0.030711255967617035
-0.06949951499700546
0.07649526745080948
0.028062142431735992
-0.05743976682424545
-0.03773872181773186
0.05203912407159805
0.006352879106998444
-0.004677176475524902
-0.035031478852033615
-0.06732573360204697
-0.0046776533126831055
-0.051798265427351
0.018917106091976166
0.01476750522851944
0.0052878037095069885
-0.016048848628997803
0.0160982608795166
0.04029130935668945
0.0017538443207740784
0.056619249284267426
0.02923550456762314
-0.07037701457738876
-0.0213269405066967
0.023254968225955963
0.04990503937005997
-0.06828659772872925
0.06440230458974838
-0.05318941920995712
-0.060932837426662445
0.015017233788967133
-0.08276601880788803
-0.06774544715881348
-0.07017998397350311
-0.06948906183242798
0.03959604352712631
-0.03539665788412094
0.01036670058965683
-0.007465720176696777
0.04410318285226822
-0.019907355308532715
0.07142255455255508
0.05791506916284561
-0.012071728706359863
0.02799675613641739
0.01650846004486084
0.054547108709812164
0.08279723674058914
0.0011555925011634827
0.012922145426273346
-0.08023291826248169
0.07063055783510208
-0.04864261671900749
0.003957666456699371
-0.024193190038204193
-0.06211044639348984
0.043414898216724396
-0.061321280896663666
0.001966238021850586
0.025706052780151367
0.0416928306221962
0.01995684951543808
-0.05310646817088127
-0.05614616721868515
0.027350425720214844
-0.05095573514699936
0.048637233674526215
0.004477046430110931
0.01018359512090683
0.05057235807180405
-0.011641241610050201
-0.004448793828487396
-0.029049895703792572
-0.0521470308303833
-0.052467864006757736
-0.05683211609721184
-0.02466660737991333
-0.0030636563897132874
-0.012131474912166595
0.05274207144975662
0.01740887016057968
-0.03498788923025131
-0.051025670021772385
-0.050245385617017746
-0.06988070905208588
-0.01994170993566513
0.02447275072336197
8.281320333480835e-05
-0.05544428154826164
-0.0701492428779602
0.06302895396947861
0.04365379363298416
0.004701472818851471
-0.06500808894634247
0.07275471836328506
-0.006410755217075348
-0.04572632163763046
-0.031054120510816574
-0.08117449283599854
-0.031938694417476654
-0.04728094860911369
-0.026983439922332764
-0.06879018247127533
0.005698107182979584
0.05008230358362198
0.048935092985630035
-0.010748423635959625
0.06296063214540482
0.023759938776493073
-0.01952306181192398
0.07110264152288437
0.022616364061832428
0.011166311800479889
0.07642374187707901
-0.03996463865041733
-0.043769340962171555
0.05069435387849808
-0.0059709325432777405
0.06252739578485489
-0.0263085775077343
0.0046859607100486755
0.014058448374271393
-0.012423597276210785
0.0014435052871704102
0.0795757845044136
-0.02703980728983879
-0.002101100981235504
0.04842611402273178
-0.004737198352813721
-0.052041273564100266
0.018621109426021576
0.05890015512704849
-0.08047004789113998
0.03070157766342163
0.005336679518222809
-0.048140984028577805
-0.07960020005702972
-0.04122769832611084
-0.07676216214895248
0.0452314093708992
-0.014438450336456299
0.04887992888689041
-0.048166673630476
-0.029788296669721603
0.04695151001214981
0.02269688993692398
-0.022268056869506836
-0.054429471492767334
-0.03339527174830437
-0.06161292642354965
-0.00031810998916625977
0.07857201248407364
-0.024955373257398605
0.02007976919412613
0.029502809047698975
-0.049554288387298584
-0.02504253387451172
-0.035422563552856445
0.08072743564844131
0.014290332794189453
0.03936193138360977
0.026256978511810303
-0.05276525020599365
0.018283985555171967
-0.05689756199717522
-0.010441578924655914
-0.04042118787765503
0.04315444082021713
0.06926759332418442
-0.002219162881374359
-0.008189477026462555
-0.005311250686645508
-0.037189286202192307
-0.047495484352111816
-0.08228170871734619
-0.039354365319013596
-0.01900293678045273
0.0669306293129921
-0.05114688724279404
-0.06693004071712494
0.05656392127275467
-0.02068305015563965
-0.05465839430689812
-0.060550712049007416
0.005045376718044281
-0.00484166294336319
-0.08027206361293793
0.009055376052856445
0.030905582010746002
-0.027897577732801437
0.049618758261203766
0.05025649815797806
-0.049582283943891525
0.06423792988061905
-0.07750833034515381
-0.06610210984945297
0.03329054266214371
-0.0590311698615551
0.052343375980854034
-0.010895788669586182
-0.013360463082790375
-0.07434269040822983
-0.05127165839076042
-0.001500345766544342
-0.013475798070430756
0.07653339952230453
0.05909080058336258
0.06632433086633682
-0.03394486755132675
0.03356105089187622
-0.025460660457611084
-0.07425215095281601
0.015361510217189789
-0.07133378833532333
0.07358995825052261
0.018915511667728424
0.02094224840402603
-0.0009870529174804688
0.07517781108617783
-0.03394037485122681
-0.03684180974960327
-0.046565018594264984
0.05777730792760849
0.0446341410279274
-0.053670428693294525
0.050887830555438995
-0.05332539603114128
0.039722539484500885
-0.039663296192884445
-0.03298262879252434
-0.017770469188690186
0.06675484031438828
0.055406875908374786
-0.031655631959438324
0.02597830444574356
0.00865558534860611
-0.029164671897888184
0.031057216227054596
0.06390077620744705
0.0009582638740539551
0.05841193348169327
-0.018306396901607513
-0.02268252894282341
0.038900673389434814
0.03844454139471054
0.03591620922088623
-0.05756223201751709
-0.06656895577907562
0.04863829165697098
-0.06278233230113983
-0.05672168731689453
-0.04574328660964966
0.042922087013721466
-0.07014580816030502
0.07387689501047134
-0.04786304756999016
0.042500339448451996
0.029054127633571625
-0.044055938720703125
-0.022107165306806564
0.05283401161432266
0.05305662006139755
-0.0031805261969566345
-0.05876278877258301
0.009009860455989838
-0.020277641713619232
-0.04296380281448364
-0.0029123052954673767
0.06078705936670303
-0.033892035484313965
-0.04750861972570419
-0.03167390823364258
-0.07613386958837509
-0.009525954723358154
0.0015173330903053284
0.0016364455223083496
-0.004948697984218597
-0.06144452095031738
-0.07171567529439926
0.028973497450351715
-0.07780623435974121
-0.015362225472927094
-0.04310290142893791
-0.014627836644649506
-0.05694606155157089
-0.019686542451381683
0.05841297656297684
0.07240965217351913
-0.038966260850429535
-0.05751216411590576
-0.07011149823665619
-0.07950520515441895
0.07642815262079239
-0.02281632274389267
0.042022980749607086
0.004295073449611664
-0.045913517475128174
-0.03882014751434326
0.01543128490447998
-0.0009782910346984863
0.07251084595918655
-0.012594141066074371
0.05060649663209915
-0.025319933891296387
0.08162841945886612
0.049409396946430206
0.060311459004879
-0.05370839685201645
-0.08002631366252899
0.05754581838846207
0.07987596839666367
-0.01863960176706314
0.06329836696386337
-0.03407915681600571
0.05199136584997177
0.02515929937362671
-0.02027120441198349
-0.0821213349699974
-0.05677078291773796
0.05989281088113785
0.06670371443033218
-0.029185853898525238
-0.040256522595882416
0.06458903104066849
0.014826200902462006
0.05718442052602768
-0.08297189325094223
0.06455785781145096
0.03076493740081787
0.06270170956850052
0.06995237618684769
-0.0827111229300499
0.040296755731105804
0.06719986349344254
-0.03910865634679794
0.04596901684999466
-0.00856858491897583
-0.04685721918940544
-0.02657298371195793
0.07085957378149033
0.06540364772081375
0.01520463079214096
-0.052913110703229904
0.01565472036600113
0.03229532390832901
0.015161849558353424
0.004809774458408356
-0.04364315792918205
0.0534994974732399
0.025158226490020752
0.07544859498739243
0.07096216827630997
0.015912391245365143
-0.07060728967189789
0.05588493496179581
0.032403089106082916
0.0010394677519798279
0.058634646236896515
-0.06128529831767082
0.01789865642786026
-0.04798714444041252
-0.028288722038269043
