-0.04579298198223114
-0.1144731193780899
0.1785673052072525
-0.13088774681091309
0.140763059258461
0.17790855467319489
0.04649020731449127
0.17514292895793915
0.1852198988199234
-0.14664888381958008
-0.14365154504776
-0.008814841508865356
0.06476388871669769
-0.19814646244049072
0.1197834461927414
0.12689299881458282
0.011761516332626343
0.13867013156414032
-0.1508682817220688
0.027866020798683167
-0.10488548874855042
0.05404774844646454
-0.1944703310728073
0.001042097806930542
-0.12106674909591675
-0.11342406272888184
0.1860889047384262
-0.13054640591144562
-0.17811979353427887
0.022243857383728027
-0.14407747983932495
-0.10187049955129623
0.011438921093940735
-0.06848485767841339
-0.11296182870864868
-0.19376380741596222
0.10628210008144379
-0.08999240398406982
-0.16844108700752258
0.050666674971580505
-0.10212264955043793
-0.11128120124340057
-0.1247372105717659
0.18258647620677948
-0.08276601135730743
-0.011568084359169006
-0.2041400969028473
0.0630868524312973
-0.09251855313777924
-0.08573571592569351
-0.08731427788734436
-0.04172138869762421
-0.03851255774497986
0.055075690150260925
-0.0921911895275116
-0.06944791972637177
-0.02082999050617218
0.1565612405538559
0.17583952844142914
-0.16363610327243805
0.03467699885368347
0.13697226345539093
0.04806877672672272
-0.04173192381858826
-0.17767158150672913
-0.1642550826072693
0.17667408287525177
0.09140042960643768
-0.16767732799053192
0.17913131415843964
-0.18806685507297516
-0.1452443152666092
-0.15489807724952698
0.11560912430286407
0.1939999908208847
0.02025267481803894
0.14035676419734955
0.16691000759601593
0.08368481695652008
-0.11606619507074356
-0.0676417201757431
0.15304206311702728
0.14318965375423431
-0.013563930988311768
0.20110876858234406
-0.14805439114570618
-0.19342480599880219
0.09456054866313934
0.0371556282043457
0.05690555274486542
0.07383434474468231
-0.07818594574928284
0.14012445509433746
0.004282042384147644
0.03402569890022278
-0.0042099058628082275
-0.10185638070106506
0.03742438554763794
0.15916763246059418
-0.08812868595123291
0.1819332391023636
0.07177357375621796
-0.1315026581287384
0.10990791022777557
-0.1383877545595169
-0.07173991203308105
-0.14783678948879242
0.075966015458107
-0.1379101574420929
0.11159856617450714
0.15826748311519623
0.030142664909362793
0.17691488564014435
-0.11329351365566254
0.20229466259479523
0.1063833087682724
-0.01566663384437561
0.07877351343631744
-0.08469466120004654
0.06284444034099579
0.1426570564508438
-0.11661861836910248
-0.18441036343574524
0.05094592273235321
-0.10953724384307861
0.19978328049182892
-0.016033262014389038
-0.04680272936820984
-0.13942593336105347
-0.009404391050338745
-0.055458977818489075
0.10601295530796051
0.16584880650043488
-0.17896661162376404
0.048938021063804626
-0.14242883026599884
0.09388579428195953
0.08353985846042633
-0.08890143781900406
-0.0039017796516418457
0.08733685314655304
-0.20804904401302338
-0.1701468527317047
-0.17643016576766968
0.18743078410625458
0.18714208900928497
-0.09871268272399902
-0.20149533450603485
0.08783338963985443
-0.0250215083360672
0.026734039187431335
-0.14376230537891388
0.16620008647441864
0.086043581366539
0.10411329567432404
0.1812157779932022
-0.162891685962677
-0.18457148969173431
-0.19314666092395782
-0.08226728439331055
-0.19333139061927795
0.046224549412727356
-0.025518342852592468
0.0032840371131896973
0.0872744470834732
0.018658652901649475
0.1193450540304184
0.10138951241970062
-0.07334889471530914
0.13366226851940155
0.08489646017551422
-0.20646917819976807
-0.09557530283927917
-0.07079237699508667
0.057699576020240784
-0.03149557113647461
-0.16956296563148499
0.10032941401004791
0.07121683657169342
0.1400371938943863
0.0067339688539505005
0.11356769502162933
-0.18642695248126984
-0.014660671353340149
-0.149162158370018
0.16953010857105255
-0.17854240536689758
-0.061774447560310364
-0.1425916850566864
0.045266613364219666
-0.1063297688961029
0.11146952211856842
0.19062577188014984
0.01684539020061493
0.07781364023685455
-0.07588464021682739
-0.19912448525428772
0.05740128457546234
0.13463793694972992
0.05285654962062836
0.1844981163740158
0.10789395868778229
-0.2080484926700592
0.1903107911348343
-0.16539929807186127
-0.14998233318328857
0.0012792795896530151
0.17411638796329498
0.06751812994480133
-0.054521769285202026
-0.16386453807353973
0.025098904967308044
0.11429773271083832
0.055801257491111755
-0.13905420899391174
-0.03703288733959198
0.03948590159416199
0.03297385573387146
-0.1735544353723526
-0.005437836050987244
-0.1776244044303894
-0.10505644977092743
-0.13151419162750244
-0.11849058419466019
-0.16041599214076996
0.02648104727268219
0.11327232420444489
0.1999102085828781
-0.18649153411388397
0.13506852090358734
0.20495282113552094
0.16731570661067963
0.0007518231868743896
-0.15397199988365173
0.10465537011623383
0.020656436681747437
0.054624542593955994
0.0165778249502182
-0.05615745484828949
0.06375335156917572
0.11309202015399933
-0.14047254621982574
-0.04507571458816528
0.007036775350570679
0.019359707832336426
-0.09461214393377304
0.12197346985340118
-0.15834452211856842
-0.12240643799304962
0.20303456485271454
0.03107638657093048
0.10573764145374298
-0.1971304714679718
-0.06669442355632782
-0.1729785054922104
0.14057405292987823
0.07870440185070038
0.060109034180641174
-0.09663509577512741
-0.17925415933132172
0.141496941447258
-0.09850612282752991
-0.08364903181791306
0.15140528976917267
-0.20233479142189026
-0.0349612683057785
0.07187499105930328
0.10097844898700714
0.1807941049337387
-0.008651375770568848
0.06488345563411713
0.061516836285591125
-0.014355584979057312
-0.12304466217756271
0.028355062007904053
-0.06488658487796783
0.05936487019062042
-0.20660440623760223
-0.03764645755290985
0.18402324616909027
-0.041493892669677734
0.031890153884887695
-0.07982654869556427
0.07323764264583588
0.15610577166080475
0.08490876853466034
-0.1316695511341095
0.1859491914510727
0.15699265897274017
-0.05763688683509827
0.06073768436908722
0.14648278057575226
0.04809309542179108
-0.002358868718147278
0.14869652688503265
0.07510428130626678
-0.19739961624145508
-0.14321495592594147
-0.13155749440193176
-0.11436568945646286
0.06428490579128265
-0.03631049394607544
-0.06578272581100464
0.04497598111629486
0.13096560537815094
-0.08033078908920288
0.1789032369852066
-0.02917523682117462
0.1209336668252945
-0.1798337697982788
-0.03177422285079956
-0.014222502708435059
-0.1900845468044281
0.1688471883535385
0.05141516029834747
-0.02391672134399414
0.08754779398441315
-0.01947663724422455
0.01563645899295807
-0.09142689406871796
0.17705963551998138
0.18236012756824493
-0.07177849113941193
-0.014181822538375854
0.09570948779582977
0.09127317368984222
0.05239422619342804
-0.04519432783126831
-0.12638571858406067
-0.14861764013767242
-0.0748150497674942
0.1705045849084854
-0.1772986650466919
0.04709012806415558
-0.19735850393772125
0.13227857649326324
-0.06199747323989868
-0.030940115451812744
0.08500777184963226
0.06715075671672821
-0.20340269804000854
0.07893349230289459
0.13056106865406036
0.07098318636417389
-0.17994076013565063
-0.012620016932487488
0.12451668083667755
-0.19706882536411285
0.00573219358921051
-0.08099193871021271
-0.0849144458770752
-0.15068787336349487
0.12051673233509064
0.12574248015880585
-0.15636193752288818
-0.04372712969779968
-0.07948625087738037
-0.16950008273124695
0.1783408671617508
0.08247222006320953
0.10773979127407074
-0.07229755818843842
0.09617842733860016
-0.15995186567306519
-0.14692085981369019
-0.17966823279857635
0.07664789259433746
-0.09854793548583984
-0.15721926093101501
-0.12223422527313232
-0.204051211476326
0.06170205771923065
-0.0563681423664093
-0.07648488879203796
-0.057524025440216064
-0.14802366495132446
0.09687893092632294
-0.016473785042762756
-0.02102695405483246
0.03796173632144928
-0.19768650829792023
0.07228080928325653
0.15298469364643097
0.1461157351732254
-0.15624094009399414
-0.08637463301420212
-0.19152957201004028
0.14460523426532745
-0.17157085239887238
-0.12375476956367493
-0.07654474675655365
-0.02215661108493805
-0.09199696034193039
0.18039505183696747
-0.04231978952884674
0.07780702412128448
0.07651476562023163
-0.14281168580055237
0.19941924512386322
0.137923464179039
-0.10999466478824615
0.16991741955280304
-0.19735665619373322
0.16205869615077972
-0.040975287556648254
0.20402385294437408
0.19743917882442474
0.20802582800388336
0.06839118897914886
-0.038582414388656616
-0.15388917922973633
-0.17741505801677704
0.048654571175575256
-0.10804061591625214
0.14923448860645294
0.1998145431280136
-0.19771982729434967
-0.08040998876094818
-0.0744905173778534
0.06475101411342621
-0.0008967369794845581
0.203974649310112
-0.016791000962257385
0.09744976460933685
-0.045748546719551086
0.13733987510204315
0.13032512366771698
-0.03399080038070679
-0.07222676277160645
-0.00854155421257019
-0.18132901191711426
0.10955296456813812
-0.07469992339611053
-0.13569381833076477
-0.07623547315597534
-0.182424396276474
-0.11310077458620071
-0.19642478227615356
0.04644741117954254
-0.03163418173789978
0.0016907155513763428
0.1587757021188736
0.09340240061283112
0.13885577023029327
-0.17696276307106018
-0.1296336054801941
-0.17994925379753113
-0.04275050759315491
0.19817893207073212
-0.05819307267665863
-0.015465781092643738
-0.16077503561973572
-0.06905940175056458
0.18500296771526337
-0.011234655976295471
0.006051406264305115
-0.09410203248262405
-0.1179608404636383
-0.12341611832380295
-0.008536040782928467
0.024664759635925293
0.17613761126995087
0.11435292661190033
0.030618518590927124
-0.09123101830482483
-0.004237055778503418
-0.1719268560409546
-0.05775560438632965
0.024883106350898743
0.14236514270305634
-0.059315308928489685
0.18929748237133026
0.005696997046470642
-0.17344197630882263
0.1226387470960617
0.09795849025249481
-0.10901038348674774
0.14510278403759003
0.05804981291294098
0.1822354942560196
0.0028872787952423096
-0.15236327052116394
-0.14450418949127197
0.10863597691059113
-0.027416959404945374
0.04091149568557739
0.20432578027248383
-0.15656393766403198
-0.017462193965911865
-0.03951802849769592
-0.00980021059513092
-0.07516434788703918
0.04684402048587799
0.05798976123332977
-0.12328781187534332
0.06305359303951263
-0.07565566897392273
0.13850443065166473
0.0490044504404068
-0.005078300833702087
-0.07885052263736725
-0.055174216628074646
-0.15105371177196503
-0.03937484323978424
0.04160590469837189
0.07509617507457733
0.001938939094543457
-0.08533621579408646
0.12050344049930573
-0.1461639702320099
-0.15273165702819824
-0.19166752696037292
-0.1771625578403473
0.15129031240940094
-0.1299532651901245
0.0721893161535263
0.08305628597736359
0.08817164599895477
-0.055480703711509705
0.0488118976354599
0.16351424157619476
0.010994985699653625
-0.12976525723934174
0.1720632165670395
0.16889970004558563
0.18771220743656158
0.028817445039749146
0.06200103461742401
0.08360348641872406
0.17017360031604767
0.003754228353500366
0.14432044327259064
0.17378829419612885
0.20159222185611725
0.04263411462306976
0.1082816869020462
0.13062633574008942
-0.01187044382095337
0.18688054382801056
0.08943505585193634
0.15656666457653046
-0.14035248756408691
0.018825486302375793
-0.026009365916252136
-0.11954322457313538
-0.12004219740629196
-0.20454630255699158
-0.08076031506061554
-0.0701347142457962
-0.15188054740428925
-0.20826871693134308
0.0038600265979766846
-0.052311450242996216
0.19879309833049774
-0.07871474325656891
0.20804645121097565
0.17580915987491608
0.19828645884990692
0.10962851345539093
0.013444781303405762
-0.18317438662052155
-0.09632796794176102
-0.12591537833213806
-0.05263817310333252
0.11134614050388336
-0.19347675144672394
-0.16942422091960907
-0.10344080626964569
-0.1827917844057083
0.011198267340660095
0.1836889237165451
-0.1363278180360794
0.11657591164112091
-0.10870369523763657
0.06125141680240631
-0.16811147332191467
0.180148646235466
-0.16377916932106018
-0.09491197019815445
0.03532978892326355
0.19520317018032074
0.05616535246372223
-0.09432892501354218
0.04596395790576935
-0.16702906787395477
0.017190054059028625
0.16043095290660858
0.0807533711194992
-0.04237337410449982
-0.1761883646249771
0.06417782604694366
-0.019278421998023987
-0.13553622364997864
-0.06475275754928589
0.06957603991031647
-0.09253764152526855
-0.10508299618959427
0.07691912353038788
0.003658980131149292
-0.12398340553045273
0.07941694557666779
0.10208143293857574
-0.138182133436203
-0.04736936092376709
0.11562205851078033
-0.13597002625465393
0.01823657751083374
-0.046911999583244324
-0.15323787927627563
0.15159903466701508
-0.10336792469024658
-0.012719005346298218
0.1317262202501297
0.17493300139904022
-0.06065952777862549
0.10407780110836029
-0.11270977556705475
0.09736092388629913
0.1204371303319931
-0.09794366359710693
0.19723744690418243
0.04816131293773651
0.19548921287059784
0.1606224626302719
0.18170695006847382
0.022165745496749878
-0.0025160610675811768
0.020244866609573364
-0.20286116003990173
0.14493156969547272
0.17060278356075287
-0.18590103089809418
0.15645118057727814
-0.17975354194641113
0.17522595822811127
-0.11553172767162323
-0.16505944728851318
-0.007139578461647034
-0.0021484792232513428
0.17203716933727264
-0.11678306758403778
-0.13807375729084015
0.05509386956691742
0.1281459778547287
0.16114555299282074
0.13506557047367096
-0.08145308494567871
0.014449641108512878
-0.06351184844970703
0.19482271373271942
-0.1685895323753357
0.16922612488269806
-0.050722554326057434
-0.003766164183616638
0.10958461463451385
-0.15766602754592896
0.07804246246814728
-0.19914287328720093
-0.10931944847106934
-0.1655568927526474
0.038897499442100525
0.041895970702171326
-0.04819872975349426
0.16511766612529755
-0.12756115198135376
0.006195813417434692
0.05791322886943817
-0.15419407188892365
0.040355950593948364
0.06749783456325531
-0.15253303945064545
-0.1961701512336731
-0.07189397513866425
-0.009860962629318237
-0.04797203838825226
-0.18214794993400574
-0.089696504175663
0.16669417917728424
0.06429032981395721
0.13454578816890717
0.15794984996318817
0.008327648043632507
0.08886881172657013
0.17955319583415985
-0.1404513716697693
0.1221587210893631
-0.13408249616622925
0.17850671708583832
-0.1316545307636261
-0.1821083277463913
-0.030612602829933167
-0.01215246319770813
-0.08028744161128998
-0.1857675462961197
-0.08508143573999405
-0.18608960509300232
-0.19673310220241547
-0.13326813280582428
0.022217556834220886
0.011048123240470886
-0.2034703493118286
0.153667613863945
0.03554151952266693
-0.09976323693990707
0.061198070645332336
-0.1642746776342392
0.0578969269990921
-0.0005520284175872803
-0.19955365359783173
0.047547295689582825
-0.14127382636070251
-0.08501426875591278
0.07592089474201202
-0.04637607932090759
0.11931072175502777
-0.11605227738618851
0.03488779067993164
-0.08124184608459473
0.033307790756225586
-0.12821145355701447
0.06482730805873871
-0.09023579955101013
-0.13997720181941986
0.10289464890956879
-0.1715729981660843
0.2063070684671402
0.18296001851558685
0.20642592012882233
-0.05688934028148651
-0.01628357172012329
0.1983334869146347
0.18590517342090607
-0.05498495697975159
-0.16543260216712952
0.04036082327365875
0.07821522653102875
-0.18123465776443481
-0.02525143325328827
-0.1626299023628235
0.15442629158496857
-0.09178616851568222
-0.013741657137870789
0.004313305020332336
-0.12683925032615662
-0.14123022556304932
-0.10630744695663452
-0.05556188523769379
-0.13901707530021667
-0.0415368527173996
0.1188773661851883
0.19580639898777008
0.1786380559206009
0.16194070875644684
-0.08770736306905746
0.09640417993068695
0.15078206360340118
0.1441301852464676
0.13545982539653778
-0.10062292963266373
-0.16513726115226746
-0.16977156698703766
0.17080451548099518
0.0476689487695694
0.12612642347812653
-0.19260045886039734
0.19989965856075287
-0.1283492147922516
0.06832419335842133
0.032636746764183044
0.16738443076610565
-0.06171350181102753
0.15501739084720612
-0.02012614905834198
0.07221011817455292
-0.03496742248535156
0.16475720703601837
0.13306768238544464
0.05683530867099762
-0.1597060263156891
-0.08883173763751984
0.17639531195163727
-0.1904088258743286
0.18435107171535492
0.014421641826629639
-0.056179821491241455
0.06540475785732269
-0.18988847732543945
-0.16462849080562592
0.07755960524082184
0.04850481450557709
-0.15115419030189514
0.13829787075519562
-0.06923508644104004
0.08927156031131744
0.09105686843395233
-0.05328628420829773
0.04378311336040497
-0.11961277574300766
0.17565633356571198
-0.1046660989522934
0.153902068734169
-0.013695582747459412
-0.015949055552482605
-0.017278701066970825
-0.14626996219158173
-0.11805380135774612
-0.10564560443162918
-0.02813507616519928
-0.025436565279960632
-0.03838455677032471
0.12586818635463715
-0.1865236461162567
0.11183078587055206
-0.09506424516439438
0.14306418597698212
0.036252930760383606
0.13634614646434784
-0.08133107423782349
-0.008273810148239136
0.08229623734951019
-0.05704265832901001
-0.04981105029582977
0.05071060359477997
-0.12884032726287842
-0.16800996661186218
-0.0620093047618866
-0.11200279742479324
0.1851007491350174
0.15998075902462006
-0.12403535842895508
0.1569477766752243
-0.07464081048965454
0.0007996410131454468
-0.025811702013015747
-0.19549638032913208
-0.12359623610973358
-0.1006007120013237
-0.1469828486442566
0.015117093920707703
-0.20352524518966675
0.05024491250514984
-0.1461426019668579
-0.07878032326698303
-0.12263621389865875
0.16167719662189484
-0.1693064570426941
-0.048898905515670776
0.02650471031665802
-0.08756855875253677
-0.06679011881351471
-0.1872730255126953
-0.04262438416481018
0.1476559191942215
0.0418294221162796
-0.1408768594264984
-0.18278388679027557
0.058935001492500305
0.009049132466316223
0.09681276977062225
0.0718337744474411
-0.02091991901397705
-0.02312442660331726
-0.08970247209072113
0.08367393910884857
-0.19758325815200806
0.13015203177928925
0.08124493062496185
0.16335920989513397
0.18468071520328522
-0.1844564527273178
0.0015405714511871338
0.10563550889492035
-0.1816561222076416
-0.2049381583929062
0.07612062990665436
0.20750369131565094
0.00732596218585968
0.14843757450580597
-0.20264168083667755
0.19198210537433624
-0.01943005621433258
-0.15109184384346008
0.17515237629413605
0.04595853388309479
-0.1719425618648529
0.16111113131046295
-0.18859262764453888
-0.015073791146278381
0.08430404961109161
-0.15481232106685638
0.09480549395084381
-0.02513282001018524
0.12960483133792877
0.18292869627475739
0.11333949863910675
-0.0916612446308136
-0.12673357129096985
-0.030111193656921387
-0.12397152185440063
-0.20445473492145538
0.09143777191638947
0.094996377825737
-0.15376901626586914
-0.12774622440338135
0.13461144268512726
0.03593356907367706
0.16732151806354523
-0.18309757113456726
0.01543213427066803
0.06928767263889313
-0.07578989863395691
-0.13726815581321716
0.09445406496524811
-0.00048744678497314453
-0.20022180676460266
-0.15451636910438538
0.12230025231838226
-0.0509793758392334
0.056475117802619934
0.11909322440624237
0.04802529513835907
0.2046506553888321
0.1743040233850479
0.019753500819206238
-0.054145440459251404
0.07533745467662811
-0.04530932009220123
0.042641445994377136
0.12859578430652618
0.12060271203517914
0.0932990163564682
0.15895293653011322
-0.0997830182313919
-0.07647126913070679
0.03704546391963959
0.17709527909755707
0.09213630855083466
0.20715706050395966
0.20109961926937103
-0.1864311844110489
0.030248597264289856
0.01669122278690338
0.02910737693309784
0.15762825310230255
-0.1218433752655983
-0.18851891160011292
-0.053845807909965515
0.1482687145471573
0.04434691369533539
0.027739256620407104
0.15019385516643524
-0.19533514976501465
0.12929202616214752
-0.0668017566204071
0.004928320646286011
-0.06771345436573029
0.0630955845117569
0.15630845725536346
-0.09314514696598053
0.1040572077035904
0.034335821866989136
-0.1992693543434143
0.16740171611309052
-0.1267591118812561
-0.054693326354026794
-0.04476609826087952
-0.08961890637874603
0.12102831900119781
0.17619206011295319
-0.1394389569759369
0.12313558161258698
0.068758025765419
-0.08458057045936584
-0.015881836414337158
0.15573810040950775
0.17255960404872894
0.009644314646720886
-0.07730481028556824
0.07727248966693878
-0.193167045712471
-0.1266937553882599
-0.1286463439464569
-0.12720757722854614
-0.17047367990016937
-0.01070365309715271
0.08868299424648285
0.005428731441497803
0.12076897919178009
0.09058080613613129
0.08673281967639923
-0.029931679368019104
-0.08851167559623718
0.18551646173000336
-0.031178802251815796
0.0684853047132492
-0.058748334646224976
0.04702986776828766
-0.013776317238807678
-0.1858474463224411
0.11358614265918732
-0.08994273841381073
-0.13898198306560516
-0.030148684978485107
0.19655956327915192
0.09153179824352264
-0.04474303126335144
0.20848746597766876
-0.022222518920898438
-0.05512966215610504
0.1151728481054306
-0.014121025800704956
-0.09794271737337112
-0.0200507789850235
0.13678289949893951
0.12745164334774017
0.009284630417823792
-0.03268413245677948
0.17030180990695953
-0.09387494623661041
0.1222722977399826
-0.13283011317253113
-0.027911514043807983
-0.057668641209602356
-0.03618049621582031
-0.10975951701402664
-0.09999967366456985
0.08666621148586273
-0.13941219449043274
-0.12221762537956238
0.13809050619602203
-0.045828625559806824
0.12884609401226044
-0.061638280749320984
0.19790290296077728
0.16427074372768402
0.1811399906873703
-0.049749359488487244
0.15486516058444977
0.09571145474910736
-0.03812916576862335
-0.01859019696712494
-0.18479464948177338
-0.1824815273284912
-0.036230653524398804
0.17705558240413666
-0.00571519136428833
0.11373259127140045
-0.00499841570854187
-0.15256763994693756
-0.18005509674549103
0.14261619746685028
0.01986902952194214
0.06372769176959991
0.018049761652946472
0.12049801647663116
-0.03362476825714111
-0.20320045948028564
-0.039696887135505676
-0.0017237216234207153
0.08749519288539886
0.09945450723171234
0.15370376408100128
-0.08892510086297989
-0.055790022015571594
-0.1580304354429245
-0.029056265950202942
0.10733382403850555
0.16375671327114105
0.17989309132099152
0.03765226900577545
-0.09822260588407516
-0.08944639563560486
0.023109018802642822
0.07032109797000885
0.050367727875709534
0.1942184716463089
0.10434336960315704
0.053601160645484924
0.00360812246799469
0.16512228548526764
-0.08128315210342407
0.15148819983005524
-0.10659170895814896
0.1027127057313919
-0.054016128182411194
-0.18575920164585114
-0.06870126724243164
0.10756121575832367
-0.10880590975284576
0.13993771374225616
-0.14686821401119232
0.1834421008825302
0.17308355867862701
-0.16040630638599396
-0.13707292079925537
-0.1658131182193756
0.11664147675037384
-0.10838324576616287
-0.10738494247198105
0.04311300814151764
0.1542799323797226
0.03839941322803497
0.09239844977855682
-0.15676471590995789
0.03272677958011627
0.19079430401325226
-0.032382115721702576
-0.0523565411567688
-0.16737309098243713
0.13352470099925995
0.019057750701904297
-0.0733904093503952
0.17147640883922577
-0.12299678474664688
0.05216585099697113
0.041482165455818176
-0.05005444586277008
0.1921852082014084
0.17836035788059235
-0.04780897498130798
0.07563488185405731
0.0754358321428299
0.1032523363828659
0.03323814272880554
-0.1839284896850586
0.13395194709300995
0.06721813976764679
0.10595612227916718
-0.14770564436912537
-0.1421498954296112
-0.054297760128974915
-0.02064456045627594
0.20687131583690643
-0.19022856652736664
0.11310942471027374
0.1325138658285141
0.15976808965206146
-0.1258213222026825
0.01381772756576538
0.08228398859500885
0.20225848257541656
-0.17012712359428406
0.13306106626987457
0.19418631494045258
0.17017881572246552
-0.07311922311782837
-0.18788102269172668
-0.03682015836238861
-0.17373135685920715
-0.1553194522857666
-0.0776413232088089
-0.1618691235780716
-0.0958496704697609
-0.02311757206916809
-0.01954115927219391
0.015002697706222534
0.12662102282047272
-0.014766216278076172
0.03571328520774841
-0.12699556350708008
0.11257369816303253
-0.18144981563091278
-0.20149646699428558
0.11206693947315216
-0.17981553077697754
0.0787229984998703
-0.01779283583164215
0.06294547021389008
-0.019908607006072998
0.14286719262599945
0.12839709222316742
-0.005678057670593262
0.03376340866088867
-0.1537458598613739
-0.05185243487358093
0.00437869131565094
-0.12262572348117828
-0.19839036464691162
-0.12006780505180359
-0.015353724360466003
0.02872079610824585
0.1040164977312088
0.05278755724430084
-0.11005004495382309
-0.1518581211566925
-0.04804830253124237
-0.06223559379577637
0.05540706217288971
0.0003108084201812744
-0.11184117943048477
-0.11040981858968735
0.13297413289546967
-0.19586828351020813
-0.14433042705059052
-0.10795113444328308
0.02441410720348358
-0.1554376184940338
-0.12373056262731552
-0.016789168119430542
0.040593624114990234
0.20059959590435028
0.20843107998371124
-0.12269636988639832
0.0930694192647934
0.18972675502300262
0.19414357841014862
0.11721785366535187
-0.14959660172462463
0.14686442911624908
0.02863365411758423
0.016493365168571472
-0.07760593295097351
-0.19296406209468842
-0.18621183931827545
0.09908454120159149
0.194345161318779
0.041641101241111755
0.17085511982440948
0.1992483288049698
-0.15006017684936523
-0.07734166085720062
-0.10970493406057358
0.05545563995838165
-0.023825839161872864
-0.17610862851142883
-0.13614502549171448
0.05491526424884796
-0.021352484822273254
-0.07731112837791443
0.0638580173254013
0.18341271579265594
0.12174861133098602
-0.14843936264514923
-0.08090433478355408
-0.12544941902160645
-0.07505805790424347
-0.021197378635406494
-0.16714350879192352
0.10935549437999725
-0.06505163013935089
0.08831743896007538
0.18944363296031952
-0.000710606575012207
0.14022515714168549
-0.10518322139978409
0.07008560001850128
0.1249602884054184
0.19728772342205048
0.14505325257778168
-0.09851661324501038
-0.10855883359909058
0.19539262354373932
-0.17359499633312225
0.02857758104801178
0.045039817690849304
-0.06405030190944672
0.11713992059230804
0.13233445584774017
0.1596194952726364
-0.1542312204837799
0.07164253294467926
0.07228676974773407
0.18594099581241608
0.008707448840141296
0.13061751425266266
0.07926006615161896
-0.028673678636550903
0.10833193361759186
-0.18540579080581665
-0.010098651051521301
0.1818198710680008
-0.009498000144958496
0.0384213924407959
0.04892958700656891
-0.14058485627174377
0.2038217931985855
0.1685592383146286
-0.0009719580411911011
-0.08638069778680801
0.11922039091587067
