-0.11346183717250824
0.1336532086133957
0.09914237260818481
-0.1284089982509613
-0.12834027409553528
0.07887706160545349
0.09792110323905945
-0.02357291430234909
0.0028308480978012085
0.04411904513835907
0.13876543939113617
-0.037810616195201874
-0.034709684550762177
0.05434831976890564
0.14083866775035858
-0.009604692459106445
0.13963337242603302
0.05609069764614105
0.07792933285236359
0.1103430837392807
-0.13117766380310059
0.1351393610239029
-0.07668251544237137
0.09619857370853424
0.08393795788288116
0.124142125248909
0.0645797848701477
0.1275910884141922
-0.0621589794754982
0.11542899906635284
-0.03831150382757187
0.0966574102640152
0.050898581743240356
-0.0841497927904129
-0.09634954482316971
-0.0056174397468566895
-0.053099602460861206
0.054952964186668396
0.03476753830909729
-0.011998116970062256
-0.052888281643390656
0.07082247734069824
-0.12792813777923584
0.12317065894603729
-0.04052763432264328
0.045030489563941956
0.14022843539714813
-0.028023578226566315
-0.02268744260072708
0.02931220829486847
-0.09528795629739761
-0.07073257863521576
0.10379761457443237
0.11109195649623871
-0.10185518860816956
0.020249783992767334
0.04126705229282379
0.05002717673778534
0.007774367928504944
-0.077398382127285
-0.05531827360391617
0.0308915376663208
-0.13593897223472595
0.12998433411121368
-0.08145077526569366
-0.00806264579296112
0.04576122760772705
-0.09992790967226028
-0.03855565935373306
-0.04248100519180298
0.09657788276672363
-0.01673702895641327
0.11039890348911285
0.08056424558162689
0.03404220938682556
0.03085087239742279
0.0447087287902832
0.0657738745212555
0.10386009514331818
0.0439433753490448
-0.1312144696712494
0.10185393691062927
-0.020049378275871277
-0.08889202773571014
0.11290161311626434
-0.06641224771738052
0.0736953467130661
0.03793536126613617
0.016588762402534485
0.04978623986244202
0.015463605523109436
-0.00524573028087616
0.13032729923725128
-0.10718976706266403
-0.037239037454128265
-0.08494730293750763
-0.002122640609741211
-0.031319938600063324
-0.08806480467319489
-0.08218249678611755
-0.12591218948364258
0.02295924723148346
0.0752657800912857
-0.10637247562408447
-0.09630785882472992
0.1379510909318924
0.10933174192905426
-0.019211985170841217
-0.0012225806713104248
0.054244086146354675
0.023019462823867798
-0.007503703236579895
0.12989501655101776
0.10755260288715363
0.0860423743724823
-0.11837933212518692
-0.0661696121096611
0.059434667229652405
-0.07846512645483017
0.1337270587682724
-0.04645703732967377
-0.07577633112668991
-0.1214323416352272
0.12562339007854462
-0.06853928416967392
0.10569807887077332
-0.018294118344783783
-0.025979287922382355
-0.057952575385570526
0.061942026019096375
-0.13945214450359344
0.013806074857711792
-0.08789169788360596
-0.1164860799908638
-0.10290829837322235
-0.04973632097244263
0.1282084435224533
0.07558317482471466
0.05933636426925659
-0.03034340590238571
0.0009295344352722168
-0.0007969588041305542
-0.10414448380470276
-0.015851587057113647
-0.07134844362735748
-0.019888311624526978
-0.054525651037693024
0.05153261125087738
0.03703388571739197
-0.07193998247385025
0.018406659364700317
-0.02197740226984024
-0.1078164130449295
-0.1294207125902176
-0.1303061842918396
-0.050190918147563934
0.07923068106174469
-0.020336538553237915
-0.0923786610364914
0.1415526419878006
0.0064827799797058105
-0.038653597235679626
0.037123218178749084
0.08088521659374237
0.07017682492733002
-0.05081643909215927
0.08079640567302704
-0.09181199967861176
-0.0806584507226944
-0.1210511103272438
-0.13681882619857788
0.1396120935678482
0.08546276390552521
-0.07899017632007599
-0.122695192694664
0.01532907783985138
-0.011933967471122742
0.13417960703372955
0.11927218735218048
0.027965739369392395
-0.04959528148174286
0.0021541565656661987
-0.07655990868806839
0.07448150217533112
-0.09930018335580826
-0.10615525394678116
0.0928964614868164
-0.13717816770076752
0.05621516704559326
0.06425575911998749
0.0478237122297287
0.12019945681095123
0.13276715576648712
-0.04502977430820465
0.11484135687351227
-0.07509662210941315
-0.06199716776609421
-0.014171481132507324
-0.07350147515535355
0.13953430950641632
-0.010907486081123352
-0.07729943841695786
0.10926108062267303
-0.1316593736410141
-0.03055713325738907
0.05116534233093262
-0.02318480610847473
-0.05208725482225418
0.08407606184482574
-0.05159158259630203
-0.012270942330360413
0.10522237420082092
0.13750894367694855
0.03178754448890686
0.0563565194606781
0.05433310568332672
0.10639981925487518
-0.13336512446403503
0.11180739104747772
-0.07265395671129227
0.07453450560569763
0.05724957585334778
0.027810290455818176
0.0037303566932678223
-0.08910924196243286
0.13878704607486725
-0.04766922444105148
0.05480088293552399
0.040461793541908264
-0.11874504387378693
0.12157182395458221
-0.0013854801654815674
0.06601965427398682
-0.10005228221416473
-0.04544482380151749
-0.02353964000940323
0.10275065898895264
-0.01422475278377533
-0.11459089815616608
0.047627851366996765
0.13747282326221466
0.1283140927553177
0.0837794691324234
0.07178325951099396
0.06415735185146332
0.05449731647968292
0.046665340662002563
-0.040497034788131714
-0.13919751346111298
0.025997117161750793
-0.0022548288106918335
0.009062692523002625
0.13318662345409393
-0.03607948124408722
-0.0090169757604599
-0.008258745074272156
-0.02342452108860016
-0.05615939199924469
0.007014855742454529
-0.04182582348585129
-0.11852572858333588
0.11005441844463348
0.06958135962486267
0.035599663853645325
0.03958539664745331
0.03525172173976898
-0.12421245872974396
0.020113080739974976
0.06856828927993774
0.10491056740283966
-0.12927356362342834
-0.09856750071048737
0.12964777648448944
0.004763245582580566
-0.0838223397731781
-0.01671801507472992
0.005499988794326782
0.020456328988075256
-0.01623760163784027
-0.020835600793361664
0.09800849854946136
-0.0601908341050148
0.1290888637304306
0.11072848737239838
-0.04768155515193939
-0.1011088490486145
-0.03524605929851532
0.045277759432792664
